tinypiccom -0.17873 -0.17395 0.21158 -0.23065 -0.5413 0.075631 -0.15711 -0.045594 -0.05944 0.1017 0.063739 0.3117 -0.19574 -0.02501 -0.28211 -0.49206 -0.14164 0.20863 0.13363 -0.13618 -0.054201 -0.2615 0.14063 0.060545 0.11416 -0.038945 0.13294 -0.055128 -0.26689 -0.22166 -0.011376 0.15708 -0.095652 -0.44312 0.1896 0.18839 -0.42607 -0.34514 0.14136 0.22394 0.38933 -0.28978 -0.050105 -0.53598 0.22661 -0.22098 -0.16164 -0.30603 -0.094779 0.09495 0.068961 -0.026084 -0.21242 -0.42908 0.055757 -0.1109 -0.36427 0.053096 0.049739 -0.07442 -0.04664 -0.18828 -0.018798 -0.35188 -0.21036 0.063907 0.037796 0.19081 0.1307 0.11468 -0.3747 0.16402 -0.036214 -0.10139 0.077441 0.19753 -0.05523 -0.36639 0.078217 0.20501 -0.2009 0.091244 0.42917 0.082492 -0.18576 -0.019298 0.051964 -0.19083 0.21142 -0.23895 0.29639 -0.079743 0.20619 0.10929 0.13597 -0.3429 -0.48564 0.093927 0.047099 -0.078775 0.10986 0.047965 -0.0018236 -0.46727 -0.24249 -0.082149 0.15358 -0.49567 0.18674 0.14921 0.19874 -0.015668 0.30261 -0.24934 -0.45699 -0.23803 0.22005 0.34372 -0.26137 -0.1879 0.28249 -0.084663 -0.023888 -0.21363 -0.13149 -0.068776 0.24556 -0.10255 0.23557 0.15812 0.11763 -0.049023 -0.0059707 0.082854 -0.15425 0.26183 0.16123 -0.45488 -0.0058655 -0.39266 -0.15976 -0.20156 0.057143 0.32003 0.038822 -0.32225 0.22473 -0.43193 0.32042 -0.010363 0.12682 0.15812 0.043814 -0.50542 -0.055818 -0.26403 -0.39484 0.1632 0.31612 0.32279 0.030731 0.45289 0.14653 0.31986 0.15257 -0.15631 0.33468 -0.19298 -0.41073 -0.41694 -0.23941 0.025608 -0.049836 -0.1562 -0.012157 -0.15964 -0.16258 -0.41767 -0.19549 0.049444 0.056559 -0.24646 -0.17558 -0.10027 0.37905 0.30525 -0.20918 0.079401 0.16129 0.059965 -0.26362 0.18355 -0.24512 -0.11126 -0.26707 -0.21945 0.17229 -0.43824 0.066504 0.43858 -0.093543 -0.16496 0.25301 0.011356 0.12817 -0.56585 -0.26289 -0.05985 -0.065063 0.029822 0.33796 0.23104 0.17618 -0.036404 -0.054027 -0.08923 0.18985 -0.14983 0.1319 -0.0094468 -0.13308 -0.044435 -0.022823 -0.27216 -0.15772 -0.11291 -0.12043 -0.41457 -0.032868 -0.10071 0.47946 0.049987 0.38995 -0.16442 0.048407 -0.27613 0.1478 0.19493 -0.056265 -0.36691 -0.0025768 0.17436 0.49771 0.22615 -0.24784 -0.028694 -0.39328 0.24489 0.21196 -0.22668 -0.29968 0.1097 -0.32438 -0.039849 -0.1527 0.3454 -0.31628 0.44054 0.27321 -0.2152 -0.20529 0.035604 -0.28341 -0.059338 0.032421 -0.19677 -0.15287 0.29724 -0.3219 0.14132 -0.38172 0.32055 0.013185 0.39301 0.070297 -0.030299 -0.0013947 -0.20632 -0.33682 0.15297 0.0066828 -0.44386 -0.31948 -0.40129 0.42199 -0.40581 0.2545 0.1926 0.032651 -0.016411 0.00045246 -0.14734 0.07089 -0.058584 -0.1465 0.24423 -0.2464 0.1045 -0.1806 0.10587 
otrotodo -0.073578 0.063884 -0.0029665 -0.21619 -0.012839 0.07231 0.076229 0.16428 0.022229 -0.28611 -0.0096418 0.096133 -0.054858 -0.098236 -0.090021 0.14736 0.22692 -0.19294 0.038953 -0.23252 -0.032849 -0.020814 -0.054553 -0.25043 0.025734 -0.029477 0.07859 -0.086355 -0.039826 -0.085931 -0.1035 0.33228 -0.10552 -0.35081 0.032898 -0.038667 -0.26504 -0.008654 0.039673 0.16222 -0.14702 0.17481 -0.14815 0.067286 0.22101 -0.24698 0.18318 -0.1199 0.08172 0.13474 -0.19417 0.20332 -0.29001 -0.08646 0.17063 -0.062788 -0.00263 -0.1669 0.076038 0.02456 -0.092579 0.12989 0.023728 -0.085586 0.25984 -0.27371 0.032875 -0.16882 -0.30905 0.028821 0.17024 -0.071065 0.1039 0.15988 -0.26399 0.14643 0.019915 -0.18753 0.51772 0.052747 0.12762 -0.018426 0.24887 0.031189 -0.077491 -0.11997 -0.07549 0.059932 0.27101 0.11465 0.10875 0.20359 0.037425 -0.095888 0.14356 -0.11041 -0.36321 -0.11656 -0.20271 0.16307 -0.074958 0.17312 0.087924 0.01617 -0.038242 0.22825 0.086639 0.018142 -0.11279 0.042019 0.064981 0.015841 0.13637 0.1291 -0.15054 0.082598 0.030944 0.22685 -0.23453 0.14208 -0.022182 -0.010184 0.092526 -0.033459 -0.1675 -0.2021 -0.036132 -0.18931 0.10044 -0.071031 -0.041829 -0.1787 -0.052956 0.17385 0.025736 -0.090198 0.017068 0.057155 0.082106 0.0839 -0.080234 -0.18171 -0.17631 0.096585 -0.02454 -0.0049886 0.14959 -0.075984 0.12844 -0.10583 0.030697 0.30051 0.24176 0.082945 -0.28017 -0.19562 0.046187 0.0067264 0.41358 0.12911 0.033844 0.10026 0.16804 0.069404 -0.10498 0.17124 0.13563 -0.081122 -0.079862 0.30493 0.02757 0.091602 -0.034291 -0.037847 -0.12864 -0.44642 0.067183 -0.094884 -0.2027 0.096027 -0.12277 0.023789 -0.0099399 -0.049293 0.14033 -0.06034 0.016762 -0.031755 0.00025403 0.3391 0.096239 0.063923 -0.0066416 0.061148 -0.045484 -0.012948 0.014947 -0.038807 0.12941 0.37809 0.11817 0.17193 0.21832 0.21874 0.11311 -0.13838 -0.09226 -0.131 0.2153 0.053035 -0.17863 0.13498 0.13246 -0.016674 -0.26725 -0.14701 0.20003 -0.057823 0.40656 0.0037333 -0.18563 0.33969 -0.1275 -0.46765 -0.084902 0.036549 -0.070664 -0.03383 -0.086608 0.040606 0.1249 -0.17375 0.18308 0.094748 0.046664 0.068718 0.078685 0.2161 -0.20074 -0.10568 0.19089 0.02403 0.22747 -0.10996 0.13884 -0.14616 0.024807 0.056831 -0.05345 -0.13958 -0.00067519 0.04152 -0.097756 0.33406 -0.10918 -0.039236 -0.06472 -0.08218 0.015666 -0.13912 0.090042 -0.0029693 0.22377 -0.12047 -0.070844 0.086311 -0.17952 -0.071559 -0.067261 -0.14727 -0.20092 0.10369 -0.13146 0.23877 0.14013 -0.030898 -0.12176 0.10318 -0.11358 0.006304 -0.16114 -0.080607 -0.1555 -0.048858 0.044425 -0.0080903 0.24061 0.22085 -0.1488 -0.034258 -0.10106 -0.14284 -0.13198 -0.097694 -0.285 -0.18607 -0.27857 -0.29858 0.32547 -0.15556 
holaquiero -0.096659 -0.60173 -0.064407 -0.0079765 -0.044905 0.096535 0.26406 0.16965 0.13477 -0.045849 0.017885 0.11531 -0.2066 -0.20062 -0.29708 0.25502 0.022239 0.29984 -0.43064 0.083612 0.24232 -0.069676 0.159 -0.11588 0.36093 0.28813 0.056315 0.13802 -0.47251 -0.14622 -0.051203 0.2902 0.0039135 -0.38195 0.37772 -0.22951 -0.20158 -0.1142 0.13019 -0.063406 -0.42752 0.24054 0.2182 0.23039 0.33229 -0.31415 -0.31259 0.089704 -0.135 -0.18785 -0.063753 0.062236 -0.37209 0.039762 -0.15822 0.035683 -0.12224 -0.21098 0.15102 0.23474 -0.013848 -0.015427 0.001287 -0.016444 0.26464 -0.040915 0.096498 0.1717 -0.32395 -0.04702 -0.2661 0.059552 -0.044019 0.31949 -0.0079953 -0.072584 -0.017998 -0.23406 0.4828 0.013257 0.16331 0.40488 0.38865 -0.0063848 0.064764 0.11594 0.032699 -0.071776 0.16394 -0.21344 0.063442 0.1037 -0.1957 -0.30989 -0.02808 0.23752 -0.29371 -0.26809 0.18189 0.3609 -0.21629 0.19072 -0.17885 -0.33245 0.044822 -0.50037 0.089714 -0.25624 -0.25607 -0.01655 0.27499 0.26382 -0.014613 -0.059367 -0.40169 0.34346 0.025334 0.30369 -0.46805 -0.10251 0.37749 -0.080361 0.11937 -0.23487 -0.19479 -0.29451 -0.058124 0.49065 0.12892 -0.04983 -0.16616 -0.41574 -0.039166 0.19914 -0.38985 0.40817 -0.089095 -0.27908 0.011493 0.023566 0.046505 0.12739 0.20164 -0.056165 0.37033 0.19425 0.24743 -0.057339 0.42944 -0.018217 0.02607 0.14233 0.38266 0.28904 -0.42556 -0.34328 -0.36732 -0.1645 0.38911 -0.049709 0.045315 -0.080194 0.096751 -0.067556 0.42139 -0.077204 0.21202 0.050105 -0.069194 0.047878 0.15467 0.085003 0.10876 -0.25398 -0.35375 -0.070444 -0.033498 -0.05612 0.12095 0.10273 -0.27252 -0.40545 0.18627 -0.41892 0.072831 0.40474 0.15811 0.28673 0.11285 -0.30399 -0.12765 0.36496 0.20601 -0.083915 -0.036418 0.14433 -0.10732 -0.065994 0.11298 -0.38989 0.26246 0.019335 0.17199 -0.28462 0.49199 -0.16292 -0.13538 -0.10726 0.14699 -0.30332 0.34383 0.010884 0.032083 0.341 -0.2693 -0.13709 0.24848 0.028245 0.2042 -0.19555 -0.089152 -0.16066 0.26088 -0.52901 0.14527 0.55606 -0.57915 0.12005 0.21447 -0.016576 0.31257 -0.20279 0.31439 0.053448 0.069941 -0.092606 0.081284 0.4715 -0.31157 -0.069707 -0.22378 -0.47542 0.35236 -0.01753 0.34811 -0.60377 0.16952 -0.020419 0.18312 0.19023 0.13557 0.28627 -0.30905 -0.26936 0.1385 -0.063372 0.095963 0.058354 -0.040461 -0.22489 0.46707 0.068494 0.18148 0.22312 -0.26624 -0.079241 -0.060194 0.41795 0.19421 0.23001 -0.37984 0.074958 -0.056701 0.21017 0.053127 0.020215 0.090344 -0.20455 -0.1573 -0.01544 -0.21675 -0.032631 -0.24837 -0.11695 0.32554 0.21977 0.38111 0.49905 0.16704 -0.098129 0.088167 -0.014965 -0.11202 0.18626 -0.39668 0.30361 -0.65594 -0.27365 0.57643 0.093331 
estotu -0.18964 -0.040484 -0.13624 -0.040093 -0.019216 0.027557 0.075471 0.12918 0.059838 -0.2921 -0.048221 0.044479 0.012847 -0.067447 -0.1947 0.16312 -0.1007 -0.15243 -0.07358 -0.08529 0.072023 -0.077019 0.017916 -0.29988 0.080444 -0.0075283 -0.0049956 -0.013235 -0.075984 -0.12192 0.08403 0.012574 -0.05222 -0.037361 0.068494 0.15228 -0.25585 -0.030579 -0.089656 0.10494 0.13808 -0.10743 -0.11463 -0.18118 0.26907 -0.15529 0.13192 -0.0042998 0.0075055 0.26903 -0.26653 -0.071871 -0.16558 -0.23036 0.059405 -0.20792 -0.11039 0.0070416 0.050219 -0.093904 -0.079788 0.02914 0.017033 -0.23152 0.34456 -0.10976 -0.088282 -0.057351 -0.23862 -0.0085909 0.09924 -0.22272 0.024564 0.25391 -0.17574 0.21191 0.076157 -0.21523 0.22794 0.0048558 0.065601 0.026615 0.044682 0.0031958 0.07824 -0.072147 -0.081295 0.026684 -0.0051591 -0.1598 0.087564 0.23513 0.49208 -0.037898 0.17692 -0.10602 -0.16268 -0.080982 0.15992 -0.029143 -0.24737 0.026984 0.0026351 0.13388 -0.24933 -0.018334 0.23361 -0.050463 -0.12508 0.033908 -0.030574 -0.040105 0.02268 -0.043573 -0.22853 -0.033814 -0.092222 -0.012266 -0.16446 0.007158 0.063673 -0.089129 -0.1104 -0.037817 -0.2223 -0.049952 -0.0016301 -0.089277 0.048185 -0.07147 -0.15418 -0.091285 0.057717 0.20516 -0.060697 0.033068 0.1236 -0.097373 -0.22441 0.087176 -0.15277 -0.25609 0.039669 0.023638 0.15896 -0.07787 0.0082675 -0.10674 0.31693 0.067523 -0.13642 0.067984 0.11882 -0.035146 0.0070885 -0.092417 0.025981 0.079791 0.36993 0.0177 0.21232 0.074818 0.097167 0.02816 0.052445 0.15481 0.054694 -0.17633 -0.14674 0.10553 0.01744 -0.026836 0.10867 0.068757 -0.23442 -0.40953 0.038928 -0.14451 0.010762 0.14254 -0.1498 0.011089 0.27508 -0.011503 0.28808 -0.0043095 -0.03901 0.18276 -0.013758 0.17697 -0.06426 -0.043675 -0.013042 0.039136 -0.18604 0.093774 0.06992 0.02395 -0.091313 0.32416 0.085166 0.1192 0.19781 0.08529 -0.019057 -0.2369 0.022521 -0.091174 -0.023394 0.15175 -0.018417 0.12518 -0.2232 0.083163 -0.16619 -0.2491 0.077014 -0.032661 0.023959 -0.1086 -0.29549 -0.034702 -0.03547 -0.45063 -0.10464 0.184 -0.21501 -0.15585 -0.12139 0.04666 0.38926 -0.027502 -0.011881 0.10926 0.028673 0.082974 0.23181 0.10627 -0.15774 -0.0024745 0.28138 -0.11317 0.36358 0.057424 0.25896 -0.22209 0.05229 0.06772 0.14419 -0.17752 -0.14206 0.13238 -0.058041 0.091618 -0.19407 0.084271 0.13764 0.088554 -0.10307 0.036492 0.10083 0.072188 0.12763 0.041712 0.067167 -0.082979 -0.17331 0.16879 0.18669 -0.088133 -0.19041 0.1374 -0.10392 0.35023 0.22188 0.049822 0.1068 -0.03627 0.14618 0.13207 -0.13414 0.03101 -0.074359 -0.15272 0.054877 -0.082573 0.19192 0.20957 -0.042713 -0.13981 0.017645 -0.22994 -0.0027501 0.045229 -0.2227 -0.025158 -0.10058 -0.10695 0.17271 -0.085623 
graciaspodria -0.15334 -0.48983 0.33028 -0.14773 -0.087377 0.21436 0.19293 0.018279 -0.33811 0.06965 0.10504 -0.12252 0.1116 0.11086 -0.19297 -0.13872 -0.010034 -0.19385 -0.016039 0.022482 0.016762 -0.070953 -0.057469 0.079255 -0.043333 0.12097 0.051062 -0.0086113 0.12561 -0.030725 -0.070301 0.327 -0.11146 -0.31709 0.13838 -0.12414 0.10695 0.030781 0.35505 0.1462 -0.062285 0.047166 -0.060438 -0.13166 0.22937 -0.45914 0.29937 -0.11256 0.26173 -0.30178 -0.14115 -0.44693 0.095844 -0.17869 0.24004 -0.20267 0.020573 0.00092305 -0.11581 -0.14813 0.24057 -0.11824 0.025359 -0.3294 0.62809 0.23038 -0.04658 0.14586 0.080136 -0.1975 -0.0070582 -0.00048975 0.094721 0.1134 0.20635 0.029519 0.27061 -0.15495 0.35117 0.033246 -0.12583 0.28641 0.50413 -0.25997 -0.1207 -0.1379 -0.40976 0.0040818 0.087148 -0.006572 0.37253 -0.036089 -0.15138 0.2326 -0.35549 -0.089895 -0.42804 0.026138 0.29789 -0.083056 0.031153 -0.13006 -0.080058 -0.20257 -0.52891 0.079279 0.1392 -0.13981 -0.20384 0.25174 0.10682 0.21692 0.36797 0.14016 0.053189 -0.10259 -0.21422 0.033737 -0.17409 -0.18774 -0.1638 -0.12846 0.26054 -0.022048 -0.23327 -0.14267 -0.033246 0.19875 0.014409 -0.068296 0.0097655 0.19979 0.2897 0.21902 -0.28687 0.096091 0.04146 0.16474 -0.29396 -0.14694 -0.37995 -0.044574 -0.33661 0.28737 0.25902 0.1045 -0.086288 0.14247 0.11987 -0.16833 -0.076643 -0.15359 0.14417 -0.083504 -0.1755 -0.019646 -0.08854 0.039924 0.34315 0.08532 0.58379 0.080207 0.076172 -0.028184 0.27263 0.19034 -0.24206 -0.054966 -0.17801 0.095524 -0.058209 0.24165 0.0505 -0.22897 -0.22082 -0.35004 0.081834 0.056358 -0.21548 -0.070753 0.15645 -0.12348 0.10836 -0.10997 0.13636 -0.044406 -0.074058 0.16753 0.16971 0.30317 0.20112 0.28132 0.12473 -0.26125 -0.13024 -0.046909 -0.048691 0.15165 -0.1253 0.28722 0.12284 -0.079512 0.24144 0.12809 0.057597 -0.063629 0.072403 -0.07961 0.085243 0.44647 0.01689 -0.009738 0.10014 -0.095188 0.029849 -0.031412 -0.083785 -0.20787 0.22233 0.15381 -0.40875 -0.24878 0.3812 -0.36079 -0.2388 -0.07394 -0.15861 0.020334 -0.22293 -0.089374 0.092199 -0.16558 0.21309 0.13641 0.13038 -0.104 0.15139 0.27568 0.15903 -0.49308 0.36121 -0.0042782 0.13324 0.026322 0.32235 -0.10801 0.10291 0.111 0.18361 -0.42314 -0.11439 0.04597 -0.10545 -0.040711 -0.27811 0.34201 -0.23232 0.010211 -0.23626 -0.1374 0.23146 0.11994 0.0016685 -0.18422 -0.11965 0.20194 0.15771 -0.023719 -0.23747 -0.26306 -0.15228 -0.14914 -0.0060737 0.57632 0.14495 -0.052553 -0.27721 -0.29313 -0.041783 0.16695 -0.10287 -0.068221 0.038395 0.1476 -0.10512 0.17521 0.15319 0.17094 -0.033246 -0.15879 -0.0081104 -0.20629 0.011244 0.13017 -0.45317 -0.033694 0.23104 -0.37089 0.40525 -0.095725 
compradorno -0.15901 -0.062269 -0.13147 -0.34981 0.23802 0.30231 -0.46344 0.086169 -0.12675 -0.43909 0.22078 0.18843 -0.084188 -0.2182 -0.16036 -0.24785 -0.096912 0.087709 -0.28081 0.1004 -0.31398 0.066728 -0.083033 -0.096449 -0.31487 -0.077272 -0.086544 0.40677 -0.22662 -0.11222 0.3936 0.014284 -0.47184 -0.087929 0.050488 0.011589 -0.26282 -0.062071 0.27334 -0.07356 -0.03032 0.15824 -0.16957 0.22789 0.0094821 -0.15754 -0.23966 0.2681 -0.16857 0.0040474 0.032591 -0.083504 -0.17402 0.24956 -0.22995 -0.57898 0.017787 -0.30427 0.21227 0.1609 -0.04154 0.012415 0.40737 0.078807 -0.16631 0.0010839 0.49593 -0.28854 0.11226 0.10467 -0.6964 -0.0888 0.046439 -0.014804 -0.16957 -0.29628 -0.12976 -0.058318 0.038056 0.12979 -0.60926 -0.029354 0.13121 -0.097445 0.28073 -0.17323 0.29283 0.19021 0.26814 -0.15845 0.40789 -0.058261 0.20458 0.14264 0.16389 -0.13309 -0.42926 -0.30101 0.20427 0.0173 0.046093 -0.064643 -0.2926 -0.0099086 -0.28832 -0.020416 -0.05453 -0.044977 0.048907 -0.18163 -0.20481 0.19318 0.10339 0.055914 0.044133 0.54618 -0.23689 0.043511 -0.37478 -0.22811 0.5175 0.0036581 0.095419 0.0078341 -0.18673 0.17646 0.011667 -0.10747 0.082008 0.025756 -0.19935 -0.56236 0.0014233 0.36597 -0.13008 0.13367 0.25274 0.41207 -0.11895 0.38909 -0.2994 0.20094 -0.37697 0.25141 0.43009 -0.060369 0.17479 0.00067151 0.5103 0.22923 0.042721 0.12924 0.12055 0.1108 -0.17641 0.21235 0.15348 0.069699 0.17374 -0.20482 0.12055 0.11716 0.31839 -0.00080626 0.050236 -0.16514 0.3784 -0.1463 -0.67751 -0.068506 0.34258 -0.23961 -0.021497 -0.019339 -0.12719 -0.43193 -0.15999 -0.30954 -0.070475 0.25514 0.42168 0.096986 -0.13742 -0.0050112 0.27511 -0.25193 -0.091437 -0.066399 -0.0695 0.31895 0.10716 0.1713 0.068257 -0.34186 0.1473 -0.23578 0.035629 -0.28323 -0.014898 0.45593 0.023311 0.074809 0.34859 0.092004 0.024799 -0.11292 0.28224 0.010785 0.021376 0.050714 -0.04441 0.14025 -0.24445 0.028757 -0.25552 -0.26884 0.28405 -0.055118 0.11052 0.11882 -0.40257 -0.17468 0.042716 -0.50128 0.18859 -0.090656 -0.20865 -0.62493 0.019026 -0.29423 0.39475 -0.37659 0.21908 -0.10893 0.62472 -0.44746 -0.015016 0.49332 -0.28003 -0.14213 0.10753 -0.21824 0.02737 -0.19501 0.091349 0.030634 -0.053383 0.036718 0.13634 -0.14475 0.10977 -0.067016 -0.095643 -0.11825 -0.32476 -0.11141 0.23819 -0.20035 0.12174 0.030082 -0.096435 0.020617 -0.011506 -0.031828 0.048971 -0.16398 -0.1802 -0.29833 -0.097533 0.21476 0.33803 0.27865 -0.061937 -0.035667 -0.20534 0.3122 0.20887 0.18767 -0.51672 0.09716 0.15392 -0.0014745 -0.070905 -0.20035 0.18072 -0.18864 0.19677 0.18744 0.012498 0.062279 -0.14781 -0.15353 0.26904 0.084359 -0.33393 -0.1764 -0.26555 -0.061019 -0.0098991 -0.017183 
trademanager 0.25843 -0.15416 -0.3429 0.16779 -0.20094 0.26078 -0.11899 -0.21053 -0.34749 -0.15367 -0.21565 0.00065199 -0.1926 0.090624 0.001734 0.03702 0.17222 0.15693 0.21181 -0.0043534 0.053497 0.02119 -0.28195 -0.029087 0.013807 -0.4086 -0.20461 0.52404 -0.17997 0.4419 0.17987 -0.068881 0.14755 0.014708 0.14931 0.19457 -0.38781 -0.057782 0.0088605 0.029194 0.14545 -0.15544 0.092518 0.37286 0.077421 -0.36279 0.0065772 0.051455 0.019244 0.15084 0.59302 -0.29169 -0.086277 -0.18331 0.26369 -0.27633 -0.40429 -0.052019 0.16441 -0.10925 -0.0044662 0.062203 0.28199 0.20405 -0.66657 0.26095 0.34527 -0.11304 -0.16768 0.0017863 0.053967 0.38431 -0.067401 -0.034828 0.085001 0.29084 -0.092998 -0.33538 0.3754 0.29959 -0.32737 0.29784 0.27877 -0.032896 0.52099 -0.14958 0.3719 0.55072 -0.073198 -0.24761 0.22266 -0.21042 0.3786 0.12828 -0.30046 -0.32779 -0.18515 0.22631 0.1272 -0.25536 0.032981 0.22619 0.051806 0.27717 -0.05636 -0.067703 0.034605 -0.022708 -0.033035 -0.18615 0.12212 0.10226 0.032623 0.19332 -0.096313 0.040693 -0.027128 -0.35508 -0.2974 0.35944 -0.025541 0.0091928 0.29077 0.35031 -0.34231 -0.18078 -0.28603 0.013049 0.36042 0.14735 0.076584 -0.40802 -0.37793 -0.358 -0.3429 0.42968 0.10528 -0.16535 0.088051 0.046832 -0.098788 -0.1734 0.31146 0.11893 0.18659 0.21801 -0.076423 -0.02404 0.27215 0.2274 -0.0092226 -0.14646 0.56989 0.33788 -0.097998 0.24671 -0.050436 0.5246 0.12912 0.31555 0.39312 -0.017442 0.51112 -0.223 0.58873 -0.023564 -0.1136 -0.20209 -0.14162 0.055821 0.69779 0.25297 -0.086219 -0.23229 -0.25535 -0.83241 -0.091943 0.3218 0.037629 0.30612 0.24115 -0.065985 -0.55359 0.11606 0.013159 -0.29742 0.29681 0.26673 -0.26255 -0.11089 0.32834 -0.19429 -0.19484 0.54076 -0.18488 -0.29282 0.22895 0.11368 -0.54056 0.0042336 -0.26195 0.17473 0.20302 0.27625 0.46202 -0.042612 -0.03388 -0.046095 -0.012222 0.082498 0.2386 0.10935 -0.42703 0.025359 0.026222 -0.29572 0.19035 -0.30868 -0.028275 -0.20199 -0.52681 -0.27966 -0.2598 -0.18564 0.025193 0.047424 0.014978 0.13086 0.019241 -0.040045 0.40277 -0.16895 0.083709 -0.12128 0.25562 -0.8031 -0.0014413 -0.13353 -0.52389 0.13644 -0.098642 -0.36808 -0.043976 -0.32909 0.40979 -0.048648 -0.38877 0.20097 0.2233 -0.17006 -0.3719 0.034265 -0.12596 -0.52134 0.10233 -0.22205 0.25743 0.25348 0.018036 -0.4518 0.020834 0.048621 0.11537 0.23848 -0.34302 0.11563 -0.39074 0.11876 -0.098382 -0.41555 0.16156 0.18956 -0.36459 0.27673 0.031098 -0.011308 0.78266 -0.10423 -0.20085 0.48293 0.025999 0.054841 0.35448 -0.12438 0.089195 -0.16157 -0.054774 0.27263 -0.044455 -0.34135 -0.27673 -0.38321 0.12973 -0.25485 -0.74791 0.20938 -0.58202 -0.12499 -0.33851 -0.024171 
ebanx -0.16528 -0.41773 -0.0076696 -0.22805 0.074331 0.19251 0.27048 -0.33146 0.11893 -0.34472 -0.033885 -0.086743 0.0063299 -0.055383 0.018412 -0.40782 0.19109 -0.33381 -0.15382 0.44565 -0.016036 0.36609 -0.3724 0.058043 0.069529 -0.034847 0.15324 -0.37791 -0.21557 -0.37713 -0.07599 0.28053 -0.11737 0.079135 0.39088 0.2229 -0.25797 0.18404 0.17314 -0.27088 -0.14019 -0.30825 0.40664 0.076156 0.61188 -0.20498 0.024562 0.15311 -0.29611 0.29603 0.051254 0.029459 -0.064067 -0.37751 0.30494 -0.18368 0.22446 -0.12846 -0.20934 -0.19184 -0.10782 -0.14745 -0.0091245 -0.33931 -0.062708 0.2843 -0.2668 0.058016 -0.23927 -0.26397 -0.20837 0.0096383 -0.14406 0.25953 0.44334 -0.16554 0.0043611 -0.42538 0.13702 -0.043576 0.10845 0.40623 0.3214 -0.1449 0.23176 0.14055 0.14932 0.47661 0.24776 -0.26227 0.14145 0.095665 0.016683 0.28437 -0.11143 -0.19367 0.10344 0.18223 0.35663 -0.050098 -0.030216 0.13695 -0.046914 0.20882 0.013354 0.28076 0.16358 -0.06261 0.16808 -0.35783 0.052381 0.13406 0.10791 0.050351 -0.073221 0.024798 -0.02552 0.0087098 0.16197 -0.04364 0.13998 -0.21734 -0.0883 0.13229 -0.35842 -0.10962 -0.030733 0.069335 0.16267 0.23501 -0.48659 -0.20293 0.064002 0.39886 -0.020019 -0.010028 0.72029 0.10913 0.33612 0.067265 -0.067507 0.59794 0.18776 0.068616 0.32848 -0.17113 0.26561 -0.41826 -0.058525 0.442 -0.13195 0.10089 0.2017 -0.084688 -0.24366 0.015713 0.070216 -0.071497 -0.361 0.21276 0.35938 -0.078456 0.20373 0.23951 0.23631 -0.086925 -0.23872 0.31981 -0.63517 -0.1349 0.30192 0.19691 -0.23697 -0.30292 -0.21121 -0.35967 -0.3417 0.20385 -0.50472 0.034933 -0.16952 -0.60263 -0.027792 -0.48811 0.06418 -0.11848 -0.011516 -0.038952 -0.09063 -0.27455 0.13292 -0.38305 -0.10616 -0.28938 -0.079252 -0.29149 0.2724 -0.44823 0.22844 -0.19081 -0.0026134 -0.27839 0.090501 -0.15802 0.074678 -0.10268 0.10179 -0.13 -0.4738 -0.17266 -0.13359 -0.0041211 0.19363 0.2743 -0.031533 -0.17381 0.043723 0.10363 -0.36388 0.44996 0.1815 0.061006 -0.098709 -0.49773 0.17106 -0.11865 0.11211 0.067035 -0.14129 -0.35624 0.21312 -0.11436 0.22669 -0.021885 0.30414 0.016911 -0.13114 -0.034614 -0.11469 0.376 -0.077259 0.2045 -0.15211 -0.0665 -0.057013 -0.16027 0.1452 0.22254 0.20699 0.33657 -0.19893 -0.099356 0.28261 -0.37881 -0.053587 0.13726 0.2525 -0.65001 0.051175 0.25263 -0.047348 -0.13573 -0.072489 0.055424 -0.1087 -0.1345 -0.3043 -0.012464 0.01095 0.26239 -0.30615 0.17442 -0.073179 -0.17526 -0.25419 -0.056123 0.13097 -0.32211 0.36961 0.066624 -0.13643 -0.31904 -0.22497 -0.33122 0.68029 0.034454 0.19273 0.35411 -0.30422 -0.13339 -0.23897 -0.33263 0.18494 -0.04523 -0.77686 0.12085 -0.41302 -0.17943 -0.24205 0.23662 
reembolsen 0.14557 -0.16669 -0.0032331 0.027535 0.16339 0.24391 -0.61109 0.24452 -0.0565 -0.0058535 0.045314 0.064795 -0.15407 -0.44787 -0.044859 -0.13326 -0.080565 0.0078732 0.29129 0.30321 -0.23334 0.22507 0.03858 0.22029 -0.21726 0.31367 -0.15343 0.39759 -0.32856 -0.30465 0.11028 -0.040431 -0.30825 -0.15581 -0.094874 -0.0020252 -0.35895 -0.077933 0.32391 0.050806 0.036893 -0.013322 -0.24091 -0.16541 0.049957 -0.1536 -0.095838 0.15714 0.059424 -0.18627 -0.074372 0.11003 0.11094 -0.07257 0.11642 -0.27391 -0.16591 -0.28064 -0.31839 -0.29578 0.20627 -0.061735 0.4363 -0.21804 0.0054 -0.079264 0.26414 -0.27173 -0.16708 -0.049568 -0.32496 0.017469 0.26077 -0.18037 0.1342 0.1427 0.040306 0.23234 0.26189 0.45503 -0.45331 -0.24206 0.21442 -0.53739 0.29122 0.041411 0.11121 0.028554 0.12323 -0.11861 0.36586 -0.051728 0.20364 0.24019 -0.2528 0.18544 -0.070735 0.030589 0.2748 -0.065854 -0.18976 -0.06329 -0.033308 0.11428 -0.09113 0.12215 0.38881 -0.036719 0.31185 0.45778 -0.11043 0.019634 0.37635 0.16011 -0.066629 0.25869 -0.21119 0.045499 -0.2833 -0.35448 0.51975 -0.01328 -0.047357 -0.49474 -0.076074 -0.11757 0.1646 0.29511 0.079353 0.072363 0.3169 -0.13745 0.39464 0.16914 0.26393 0.15624 0.27774 0.14522 0.20777 0.23727 -0.0066607 0.0050023 -0.41601 -0.095039 0.36148 0.10104 0.14247 -0.14762 0.1875 0.43257 -0.19126 -0.012506 -0.030182 -0.043723 -0.13497 -0.14353 -0.46607 0.054946 0.29846 -0.068544 0.17876 -0.075074 -0.011236 0.5848 -0.028516 -0.15611 0.42703 -0.64979 -0.54028 0.083526 0.47048 -0.14078 -0.0675 0.096589 -0.48776 -0.51167 -0.038121 -0.01942 -0.060053 -0.13363 0.042235 -0.0064426 -0.044833 0.03324 0.4349 0.083385 -0.079281 0.19304 -0.25126 0.11032 0.050766 0.19603 0.20669 0.17082 0.44735 0.42677 0.077621 -0.23162 -0.26059 0.5107 -0.13026 -0.029777 -0.1065 0.060429 0.15921 0.001487 0.30963 0.4579 -0.3631 -0.065885 -0.0022866 0.3061 -0.21708 -0.028295 -0.59393 0.0015353 0.19672 -0.0027497 -0.56207 0.15115 -0.49981 0.040473 -0.06711 -0.58138 0.028426 0.29744 -0.17051 -0.18372 -0.4451 -0.39985 0.14426 -0.017008 0.30067 -0.14986 0.23313 0.046727 0.062584 0.43356 -0.12849 -0.54632 0.34312 0.18924 0.32834 -0.24802 0.14617 -0.059563 -0.021071 0.53418 0.24093 -0.31922 0.22128 -0.028514 0.076645 -0.10664 -0.2489 0.078843 0.52466 -0.041361 -0.16428 0.072136 -0.056973 -0.1716 -0.32184 -0.33567 -0.11084 -0.098647 -0.085648 -0.29847 0.17772 0.094784 -0.18655 0.41309 0.045366 0.33997 -0.089625 0.33826 0.38428 0.39135 0.072835 0.010571 -0.22737 -0.029249 0.026347 -0.79001 0.42304 -0.048749 0.15564 0.19233 -0.1291 -0.085534 0.003863 -0.2287 0.42996 0.43976 -0.32837 0.017913 -0.36779 -0.049251 0.016128 0.081499 
resvuelve 0.025731 -0.19664 -0.035622 -0.03865 0.21405 -0.30269 -0.049128 0.16136 0.029609 0.19193 0.0017586 0.12641 -0.040741 -0.14322 -0.075963 0.17838 0.15824 0.20427 -0.22259 0.092892 0.02558 0.34264 0.25895 -0.055506 0.23109 0.29939 -0.22376 0.30637 0.15762 -0.10016 -0.025185 0.27609 0.37485 -0.023254 0.048852 -0.20421 -0.048873 -0.19558 0.023665 0.13438 0.096357 0.42988 0.25396 -0.11631 0.047374 -0.16674 0.27099 0.105 0.2133 0.13034 0.098607 -0.37638 -0.013984 -0.0045209 -0.12466 -0.1534 0.19907 -0.083911 0.050871 0.12178 -0.19659 0.0969 0.15646 0.11877 0.33776 0.15637 0.18205 -0.083552 0.27781 -0.12362 -0.0034092 0.19273 -0.13571 0.014779 -0.16095 -0.073875 0.17363 -0.44162 0.043555 -0.25626 -0.044659 0.43328 0.054484 -0.15496 0.24322 0.14543 -0.23678 -0.14127 0.25956 0.23891 0.2566 0.20856 -0.076248 -0.024786 -0.12622 -0.070848 -0.6736 0.13155 0.02678 -0.38101 0.0058738 0.014895 -0.11347 0.11553 -0.24433 0.10145 0.1797 0.024836 0.16731 0.14266 0.076484 0.11875 -0.0045459 -0.023622 0.077068 0.090864 0.0017963 0.12686 -0.34448 0.043981 0.33839 0.1882 -0.046242 -0.1926 -0.39668 -0.18738 0.1541 -0.081314 0.10558 0.16391 0.1338 -0.24354 -0.2786 0.12987 -0.20578 0.12192 -0.20749 -0.075149 -0.066209 0.39797 0.16854 0.053369 0.098785 -0.039003 0.0053159 -0.013672 0.05426 -0.15429 0.24006 -0.06492 0.055365 -0.32087 0.33256 0.013596 0.047295 -0.23624 -0.0012982 0.16769 0.0036872 0.19998 0.2173 0.30752 -0.24136 0.051993 0.30195 -0.10861 -0.061341 -0.12041 0.00554 0.10628 0.24551 0.10764 0.29627 -0.13007 0.13466 -0.024827 -0.11063 -0.19184 -0.057957 0.41716 -0.42166 0.070112 -0.13845 -0.11341 0.25719 0.24157 0.14994 0.12108 0.0020691 0.26823 0.11128 0.083896 0.15674 -0.23604 -0.19318 0.044682 0.1705 0.01497 0.13853 0.16637 0.080703 -0.36828 0.14892 0.080334 0.19805 0.036921 -0.099047 -0.44855 0.024908 -0.14832 -0.04142 0.35566 -0.025998 -0.30628 -0.31632 -0.014167 0.23018 -0.19943 0.048032 -0.22995 -0.25781 -0.57274 0.19105 -0.18652 0.13685 0.44354 -0.26161 -0.051613 -0.44758 0.035305 -0.00036354 -0.22401 0.24704 0.30013 0.057396 0.012387 0.27248 0.13423 -0.42596 -0.51139 -0.24381 -0.30016 0.28238 -0.080205 0.30208 -0.29655 0.23675 -0.16779 -0.29289 0.33461 -0.21802 0.011134 0.20755 0.012495 -0.082514 -0.10638 -0.26672 -0.11386 -0.051756 -0.26182 0.12102 0.32261 -0.039307 0.32312 0.1396 -0.089068 0.05763 0.22661 0.16505 -0.00089455 -0.21889 0.29264 -0.29452 0.18742 0.36135 0.066754 0.091191 0.10448 -0.22256 0.13494 -0.0091082 -0.15126 -0.21574 -0.0088529 0.26123 0.052531 0.30242 -0.012801 0.0018841 -0.13489 0.07188 0.0061118 0.1233 -0.05689 -0.4877 -0.39081 -0.2557 -0.091614 0.17861 -0.11655 
metanme -0.15647 0.0052365 -0.13864 -0.050699 -0.41237 -0.074467 -0.048683 -0.023636 0.12034 -0.35694 0.32103 0.44502 0.062617 -0.22536 0.15593 -0.37768 0.1865 -0.28789 -0.11904 0.11974 0.18762 -0.10022 0.11691 -0.13968 0.50421 -0.35514 0.33835 -0.0014156 -0.41864 0.078646 0.48942 0.57874 -0.14015 0.051192 -0.014942 -0.17288 -0.061606 0.12578 0.13676 -0.1037 -0.077559 0.03615 -0.13832 0.014071 -0.0081547 -0.37197 0.35547 0.061963 -0.033687 -0.031829 -0.04953 0.097472 -0.20022 -0.18326 -0.052033 -0.57872 0.06439 -0.11066 0.032484 -0.049023 -0.35637 0.015256 -0.058428 -0.3998 -0.082029 0.20414 0.2828 0.081271 0.21516 -0.16537 -0.3358 0.028214 -0.030623 0.22973 0.26356 -0.22085 0.47211 0.13742 0.3586 0.17112 -0.33855 0.16018 0.29007 0.31267 0.070464 0.25493 0.26001 -0.10798 -0.22409 0.031777 0.49053 0.425 0.26179 0.079723 0.14706 0.17312 -0.17006 0.18536 -0.086022 -0.08705 0.20521 -0.061757 0.19336 0.038147 -0.46637 -0.087892 0.1655 -0.40358 0.40275 0.25241 0.44742 0.0083679 0.09916 -0.36442 -0.41116 0.37114 -0.06663 0.16498 -0.65141 -0.10746 0.23837 0.46431 0.25243 0.18719 -0.59045 -0.0054513 0.048155 0.53981 0.31552 -0.14632 -0.30533 0.39758 -0.23276 -0.2632 0.29819 -0.41009 0.1013 -0.55689 -0.080329 0.26939 -0.011273 -0.0010915 0.063441 0.21506 -0.0033136 -0.35578 0.49634 -0.23427 0.61624 -0.24344 0.67465 0.0053455 0.25361 0.21501 0.33761 0.46044 0.19475 -0.14034 -0.093344 -0.067723 -0.26133 -0.60456 -0.20246 -0.015058 0.039906 -0.20918 -0.18334 -0.67319 -0.19193 -0.021969 -0.36221 0.50162 -0.11566 0.11027 -0.37393 -0.85028 0.22711 0.017806 -0.13721 -0.11915 0.16884 0.069344 -0.01482 -0.15308 0.024629 -0.05295 -0.58392 -0.14427 0.52629 -0.16193 -0.31734 0.22325 -0.096154 0.31385 0.013585 -0.020371 0.01687 -0.2781 -0.38335 -0.38845 -0.056417 0.25927 0.29222 -0.39515 0.42199 -0.43217 -0.084736 0.12922 0.065294 0.10578 0.070077 -0.019951 0.42426 0.28251 0.30634 -0.3673 0.29663 -0.46376 0.37116 -0.037473 0.29422 -0.38888 0.28701 0.30253 0.18763 0.4754 -0.43889 -0.28595 0.10836 0.41291 -0.031625 0.16341 0.23334 0.2336 -0.0015399 0.16984 -0.022076 0.18768 -0.041409 -0.60815 0.12039 0.017472 0.18987 0.36341 0.082684 -0.041832 0.39885 0.27735 0.59091 0.47463 0.15898 -0.16116 -0.070743 0.37748 -0.61303 0.58766 -0.61997 -0.15777 -0.027392 0.16696 0.56873 -0.049007 -0.13123 -0.20054 -0.13287 0.51664 -0.30384 0.33244 0.012179 0.035133 -0.45232 0.56462 -0.34624 0.12816 0.25312 -0.50688 0.8091 0.13301 0.56558 0.31141 -0.37172 -0.29742 -0.37743 -0.27975 0.2874 0.13923 0.29642 0.24296 -0.3133 0.41826 -0.31066 -0.21204 0.0018565 0.054012 -0.15834 -0.55233 -0.12139 0.18065 0.21557 0.021542 
quieba -0.13496 -0.067104 0.10337 -0.18616 0.21212 0.17826 -0.034846 -0.0085119 0.02008 -0.075149 -0.11889 0.22072 0.19315 0.032935 0.13901 0.077949 -0.12787 0.44193 -0.35171 0.17548 -0.15058 0.10978 0.084034 -0.098512 -0.1641 0.14612 -0.2051 0.091775 -0.2871 0.12538 0.055301 0.32462 0.20491 0.15775 -0.0055105 -0.083943 -0.46392 -0.060655 0.0036572 -0.036938 -0.30166 -0.010335 -0.095356 -0.018319 0.11303 -0.43143 0.022783 0.14934 -0.29172 -0.074864 -0.25014 -0.35757 0.098673 -0.27087 -0.08147 -0.53056 -0.188 -0.16124 0.45638 -0.0067407 -0.25761 -0.24752 0.38843 -0.21783 0.3293 0.0771 -0.039162 0.04299 0.02243 -0.39048 0.18875 0.028878 0.41428 0.34058 0.19843 0.082705 -0.097006 0.14732 0.49491 0.20263 -0.32583 -0.026253 0.44212 -0.14095 0.17085 -0.078436 0.36656 0.20339 -0.10281 -0.21978 0.11013 0.05407 0.28204 -0.17375 -0.28598 0.042737 -0.54799 0.0014108 -0.22561 0.016946 -0.040381 0.54532 -0.16455 0.016818 -0.0066017 -0.38913 -0.22877 -0.13998 0.098387 0.0056213 0.29194 -0.13312 -0.011856 0.2984 -0.14907 0.19018 0.096725 -0.098125 -0.29056 -0.33029 0.028058 0.052678 -0.16297 0.066752 -0.17326 -0.21926 0.086119 -0.19402 0.037436 -0.21484 -0.15145 0.067175 -0.012814 -0.35158 -0.28654 0.16921 0.093685 -0.52194 -0.01198 0.23154 0.00045348 -0.010889 0.27912 -0.25532 -0.15475 0.12406 -0.29692 0.013664 0.05217 0.055458 0.077835 0.096635 0.055177 0.49419 0.040313 0.024061 -0.13199 -0.14757 -0.033232 0.21486 -0.015737 0.25346 0.06874 -0.22508 -0.1474 0.0067805 -0.035312 -0.25489 -0.20191 -0.11308 0.07107 0.24103 0.1072 -0.20612 -0.28977 -0.38279 0.49972 -0.052301 0.14121 0.19709 0.025614 -0.015891 -0.11124 0.051929 0.09261 0.086261 0.026579 0.028564 0.10768 0.025572 0.041345 0.27586 0.034061 -0.042357 -0.21058 -0.2071 -0.43796 -0.23488 0.18408 -0.19958 0.1469 0.14191 0.54908 0.22308 0.32564 0.00053892 0.022775 0.0039645 0.26737 -0.033259 0.13897 0.13005 -0.6798 0.065931 -0.21547 -0.17808 0.094332 -0.24066 -0.048422 0.46789 -0.28002 -0.028368 0.20346 -0.20325 0.21956 0.59886 -0.28334 0.20616 -0.29937 0.15483 0.2728 -0.12356 -0.22918 -0.28871 -0.20586 0.053897 0.39012 0.011877 -0.4492 0.28483 -0.080275 -0.17948 0.20827 -0.015252 -0.11615 -0.22787 -0.12332 0.032263 0.59154 0.12807 0.21374 0.24743 0.032798 -0.37077 0.19652 0.17117 0.2744 0.058348 0.21936 -0.038963 0.093226 0.057813 0.12728 0.087539 -0.14157 -0.28951 0.023591 0.52682 -0.43894 -0.11614 0.0029646 0.38304 -0.10878 0.24243 -0.49324 0.28532 0.11254 0.041595 -0.32076 -0.096984 -0.11023 0.3192 -0.21002 0.026984 0.19009 0.28747 0.26048 0.45771 0.24677 0.12079 0.15171 -0.18569 0.2902 0.13169 -0.4794 -0.30302 -0.25245 0.16693 0.1602 0.28283 
quieor -0.13496 -0.067104 0.10337 -0.18616 0.21212 0.17826 -0.034846 -0.0085119 0.02008 -0.075149 -0.11889 0.22072 0.19315 0.032935 0.13901 0.077949 -0.12787 0.44193 -0.35171 0.17548 -0.15058 0.10978 0.084034 -0.098512 -0.1641 0.14612 -0.2051 0.091775 -0.2871 0.12538 0.055301 0.32462 0.20491 0.15775 -0.0055105 -0.083943 -0.46392 -0.060655 0.0036572 -0.036938 -0.30166 -0.010335 -0.095356 -0.018319 0.11303 -0.43143 0.022783 0.14934 -0.29172 -0.074864 -0.25014 -0.35757 0.098673 -0.27087 -0.08147 -0.53056 -0.188 -0.16124 0.45638 -0.0067407 -0.25761 -0.24752 0.38843 -0.21783 0.3293 0.0771 -0.039162 0.04299 0.02243 -0.39048 0.18875 0.028878 0.41428 0.34058 0.19843 0.082705 -0.097006 0.14732 0.49491 0.20263 -0.32583 -0.026253 0.44212 -0.14095 0.17085 -0.078436 0.36656 0.20339 -0.10281 -0.21978 0.11013 0.05407 0.28204 -0.17375 -0.28598 0.042737 -0.54799 0.0014108 -0.22561 0.016946 -0.040381 0.54532 -0.16455 0.016818 -0.0066017 -0.38913 -0.22877 -0.13998 0.098387 0.0056213 0.29194 -0.13312 -0.011856 0.2984 -0.14907 0.19018 0.096725 -0.098125 -0.29056 -0.33029 0.028058 0.052678 -0.16297 0.066752 -0.17326 -0.21926 0.086119 -0.19402 0.037436 -0.21484 -0.15145 0.067175 -0.012814 -0.35158 -0.28654 0.16921 0.093685 -0.52194 -0.01198 0.23154 0.00045348 -0.010889 0.27912 -0.25532 -0.15475 0.12406 -0.29692 0.013664 0.05217 0.055458 0.077835 0.096635 0.055177 0.49419 0.040313 0.024061 -0.13199 -0.14757 -0.033232 0.21486 -0.015737 0.25346 0.06874 -0.22508 -0.1474 0.0067805 -0.035312 -0.25489 -0.20191 -0.11308 0.07107 0.24103 0.1072 -0.20612 -0.28977 -0.38279 0.49972 -0.052301 0.14121 0.19709 0.025614 -0.015891 -0.11124 0.051929 0.09261 0.086261 0.026579 0.028564 0.10768 0.025572 0.041345 0.27586 0.034061 -0.042357 -0.21058 -0.2071 -0.43796 -0.23488 0.18408 -0.19958 0.1469 0.14191 0.54908 0.22308 0.32564 0.00053892 0.022775 0.0039645 0.26737 -0.033259 0.13897 0.13005 -0.6798 0.065931 -0.21547 -0.17808 0.094332 -0.24066 -0.048422 0.46789 -0.28002 -0.028368 0.20346 -0.20325 0.21956 0.59886 -0.28334 0.20616 -0.29937 0.15483 0.2728 -0.12356 -0.22918 -0.28871 -0.20586 0.053897 0.39012 0.011877 -0.4492 0.28483 -0.080275 -0.17948 0.20827 -0.015252 -0.11615 -0.22787 -0.12332 0.032263 0.59154 0.12807 0.21374 0.24743 0.032798 -0.37077 0.19652 0.17117 0.2744 0.058348 0.21936 -0.038963 0.093226 0.057813 0.12728 0.087539 -0.14157 -0.28951 0.023591 0.52682 -0.43894 -0.11614 0.0029646 0.38304 -0.10878 0.24243 -0.49324 0.28532 0.11254 0.041595 -0.32076 -0.096984 -0.11023 0.3192 -0.21002 0.026984 0.19009 0.28747 0.26048 0.45771 0.24677 0.12079 0.15171 -0.18569 0.2902 0.13169 -0.4794 -0.30302 -0.25245 0.16693 0.1602 0.28283 
yandexmoney -0.80397 -0.35408 -0.31429 -0.79071 -0.19782 -0.00070717 -0.42585 0.42254 -0.12271 0.96874 0.48663 -0.052995 -0.11389 0.11592 0.13754 -0.70425 0.47498 0.60065 -0.27186 -0.60999 -0.0934 -0.21145 0.44261 0.5449 0.37207 -0.69408 0.6501 0.49199 -0.8042 -0.43699 0.33087 0.88174 0.37128 -0.50013 -0.19581 -0.33592 -0.74944 0.033483 0.89064 0.30769 1.1346 -0.0074484 0.22843 -0.29203 0.41824 0.15698 -0.36388 -0.43385 -0.15161 -0.14551 0.27074 0.17048 -0.50269 -0.58416 0.36012 0.58647 -0.27321 -0.42138 0.86182 0.13404 -0.49515 0.065778 -0.33401 -0.074519 -0.21835 0.30728 1.4479 -0.038499 -0.57387 -0.23539 -1.649 0.89426 -0.51307 0.3334 -0.69249 0.34681 0.53872 -0.61235 0.84152 0.15392 0.42589 -0.64466 0.82451 0.3637 0.23315 0.36656 -0.83745 -0.055478 0.15021 0.03229 0.67752 0.80277 -0.092857 -0.58652 0.00016448 -0.19064 -0.47397 0.79259 -0.059188 0.0092071 -0.55468 -0.52068 0.024767 -0.34662 -0.50789 -0.39604 -0.25057 0.57051 0.38325 0.33353 -0.0053324 -0.71397 -0.13927 -0.025957 -0.28692 0.32142 0.53905 0.13936 -0.70195 1.5543 0.94227 0.36588 0.084466 0.65542 -0.12593 0.64822 -0.19417 0.14121 -0.34995 0.68767 -0.48162 -0.4361 0.68588 -0.24282 -0.42306 0.44145 -0.83084 -0.20062 0.38787 -0.37826 0.21321 0.045375 1.0076 0.53583 0.42097 -0.39068 0.45465 -0.14108 0.29172 -0.85765 0.14083 1.1007 0.10596 0.15028 -0.15026 -0.29102 -0.64854 -0.042723 0.62448 -0.52373 0.62957 -0.21749 0.41372 0.58924 0.83701 -1.0171 -0.74476 0.11977 -1.1343 -0.27261 0.022411 0.17003 -0.30253 -0.53626 0.19175 -0.77645 0.24073 -0.58898 -0.54704 -0.34971 0.4829 0.24585 0.5665 -0.05332 0.36591 0.30141 -1.1909 -0.0028104 0.2942 0.1157 0.039508 0.048215 -0.089629 0.34499 -0.38338 0.55395 0.5296 -0.15332 -0.6618 -0.026219 -0.94098 0.40817 0.74636 -0.99903 0.095652 -0.42923 -0.3602 -0.44028 -0.27248 -1.0658 -0.12 0.052189 -0.5626 0.1236 0.3483 -0.019675 0.84032 0.11849 0.13291 -0.3799 -0.28231 -0.062706 -0.020509 -1.3277 -0.0047935 -0.54221 -0.39649 -0.51637 0.95989 0.21485 0.70316 -0.60818 0.35419 -0.37403 -0.39351 -0.3298 0.24856 0.43734 -0.023341 -0.38455 0.13097 -0.43032 0.027743 0.55156 0.42746 0.15053 -0.12559 1.2159 -0.023758 -0.2862 0.12839 -0.14223 -0.3626 -0.62098 -0.35669 0.11504 -0.39516 1.0263 -0.67089 0.055864 0.32583 -0.12805 0.27054 0.26531 0.51143 0.012516 0.45486 -0.13283 0.32919 0.12389 -0.39416 0.85011 0.96797 0.74137 0.038701 0.14386 -0.20538 -0.53355 0.43 1.2175 0.012728 -0.49192 -0.32945 -0.54384 -0.14192 -0.27773 0.37091 0.43739 -0.23374 0.086424 -0.49874 0.023316 -0.2285 0.59037 -0.37541 -0.015094 -0.093967 0.93369 -1.2329 0.052041 
refunfd -0.3276 0.14272 -0.69489 -0.14803 0.90912 0.2663 -0.52334 -0.045497 -0.19542 -0.85695 0.58052 -0.37586 -0.58425 -0.33184 0.1722 0.006281 -0.5944 0.60869 0.69244 -0.092633 0.37883 0.086353 -0.33002 -0.40317 -0.16318 -0.30471 -0.36696 0.22346 -0.60347 -0.2292 -0.36685 0.33742 -0.34108 -0.3041 -0.5931 0.48352 -0.40475 0.0091329 0.4648 -0.44955 0.37585 0.75435 -0.31874 0.047503 0.85483 -0.58872 0.02306 -0.3966 0.12531 0.24692 -0.088159 0.0077299 -0.59865 -0.15752 0.1971 -0.20205 0.53334 0.23424 0.31722 -0.69171 0.17805 -0.011636 -0.43539 0.20451 -0.0039802 -0.16625 0.26912 0.30259 0.47031 -0.32707 -0.40699 0.22601 0.18781 -0.12834 -0.64926 0.0072206 -0.15926 -0.44284 -0.34617 0.075632 0.65472 -0.021613 0.10537 -0.089426 0.095875 -0.15218 -0.0082472 0.01947 -0.19341 -0.069909 0.32198 -0.090828 -0.083569 0.021879 0.45919 0.22183 -0.47769 0.45675 0.19663 -0.23898 0.16961 0.32139 0.23319 -0.24587 -0.53156 0.062785 0.12552 -0.1087 -0.070451 -0.30736 0.1187 -0.19013 -0.18172 -0.52479 -0.28571 -0.4727 -0.040273 -0.46584 0.11904 0.18268 -0.028572 -0.32918 0.23636 0.083951 0.45845 -0.22233 0.10946 0.026714 0.72501 -0.020082 0.061832 0.1274 0.089702 -0.012162 -0.13769 0.22242 -0.20597 -0.43973 0.52221 -0.29434 0.37619 0.55614 -0.033429 -0.017445 0.37826 0.14597 0.91903 -0.63793 0.070484 0.032202 -0.16051 -0.23432 -0.18712 -0.39165 -0.14518 -0.19489 -0.50892 -0.052979 -0.34596 -0.18464 0.058378 -0.088813 0.36026 0.20179 -0.016776 -0.56817 0.15033 0.1086 -0.19039 0.041892 -0.3981 0.64896 0.063457 -0.43317 0.41025 -0.59541 -0.26605 -0.88993 -0.49967 0.38138 -0.30281 0.024894 0.43879 -0.028152 -0.20101 -0.20227 -0.25861 0.11643 0.45171 -0.071627 -0.82001 -0.11078 -0.42173 -0.23313 0.22228 0.74802 0.048681 0.33291 0.094836 -0.33064 0.64424 0.076568 0.44126 0.75007 0.29288 -0.26625 -0.51573 0.28366 -0.09076 -0.21053 0.053373 0.10817 -0.098606 0.41176 -0.22221 -0.088558 -0.13381 0.02332 -0.60053 0.22279 -0.31352 -0.14245 0.24425 -0.050867 0.3931 -0.39995 0.023716 -0.2127 -0.02757 0.58056 -0.34893 -0.69672 0.26491 0.48604 -0.39812 -0.074292 0.0011166 0.26149 -0.34226 -0.44253 -0.064009 -0.062133 0.088436 -0.065263 0.10889 -0.42664 0.099542 0.17671 -0.21852 -0.081259 0.44145 -0.045734 0.12104 0.58105 0.57862 -0.055174 -0.12489 -0.0065963 0.042502 0.49842 0.10537 -0.22224 -0.40487 0.42914 -0.77623 -0.070414 -0.25438 0.16944 -0.10025 0.17552 0.33249 -0.14726 -0.36191 0.074397 0.28334 -0.094065 0.63768 0.1588 0.47029 -0.058803 0.065912 -0.7092 0.16947 -0.28553 0.39963 0.41498 0.4311 0.70863 0.2348 0.086597 -0.38596 -0.34461 0.10133 0.13114 -0.55173 -0.32991 -0.43 0.22372 0.10801 0.11753 
problemsyou -0.059698 -0.079689 -0.42062 -0.14108 -0.14723 -0.019666 -0.6766 -0.19892 -0.089243 -0.52421 0.19609 -0.27085 0.31035 -0.3961 -0.22952 0.092026 -0.1232 0.27517 -0.039533 -0.065564 0.59135 0.026385 0.0093607 -0.89655 0.1855 -0.28186 -0.30793 0.6578 -0.26106 -0.16362 0.09631 0.72887 0.18626 -0.52275 -0.3057 0.088352 -0.28883 0.093623 0.20784 0.10823 0.25781 0.1466 -0.16305 0.0053213 0.58751 -0.36042 -0.69653 -0.50782 -0.10467 0.23495 -0.14865 -0.35491 -0.20014 -0.42776 0.16832 -0.40869 -0.21866 0.022859 0.27999 -0.1544 -0.43343 -0.33276 0.11413 -0.34385 -0.15666 -0.1576 0.13938 0.29361 -0.088358 -0.18324 -0.60308 0.55554 0.1063 0.25674 -0.24582 -0.029952 0.17106 -0.58285 0.19895 0.38423 0.085625 0.088309 0.13969 -0.37722 0.19468 -0.22259 -0.41045 0.1434 0.40571 -0.13062 0.61973 0.019778 -0.10847 -0.17094 0.016471 -0.17262 -0.35427 0.39627 0.13919 -0.12755 0.053495 -0.085484 0.059654 -0.11418 -0.35901 -0.1616 -0.3238 -0.26188 -0.01468 0.34018 0.49005 -0.24942 -0.45241 -0.19699 0.047334 -0.12613 0.045452 0.0022707 0.36884 0.21428 -0.29911 -0.20309 0.21159 0.26567 0.35957 -0.00043427 -0.099379 0.33127 0.42908 0.18082 0.21893 0.45361 0.45143 -0.11467 0.17395 0.62472 0.28484 -0.56951 0.33056 0.39297 0.17678 -0.1933 -0.1261 -0.2824 -0.42513 -0.018405 0.60585 -0.34925 -0.52403 0.032013 -0.42894 -0.079422 0.12408 -0.60038 -0.038739 -0.53553 -0.60711 -0.15216 0.34015 -0.25935 0.3356 0.011984 0.014168 0.2726 0.043068 -0.3675 -0.27149 0.296 -0.35763 -0.1464 0.054595 -0.071586 -0.3095 -0.43444 0.076963 0.13055 -0.085335 -0.04532 0.15746 0.061547 -0.034581 -0.16047 -0.38546 -0.15372 0.13845 0.28949 0.013588 0.34683 -0.028425 -0.21382 -0.0064674 0.23935 -0.0022865 -0.26447 -0.025515 0.28586 0.20421 0.35122 -0.11207 0.011477 -0.24702 0.15292 -0.011261 -0.14275 0.54399 -0.54882 -0.15851 -0.49032 -0.54099 -0.9092 0.094653 0.4948 -0.075345 -0.030664 0.47675 0.20185 0.10611 0.4027 0.50123 0.04304 0.067349 -0.18058 -0.036527 -0.7347 -0.11897 -0.053914 -0.26997 -0.1678 0.31523 0.47096 0.18895 -0.082205 0.38591 0.013467 0.17268 -0.48999 0.19832 -0.35515 -0.053143 -0.16539 0.26629 0.051372 -0.047988 0.41901 0.27628 -0.52048 0.034473 0.15796 0.33995 -0.75059 0.070214 0.41918 0.15527 -0.012819 -0.32584 0.21623 0.28562 -0.34105 -0.28538 -0.058913 -0.069306 0.17436 -0.12015 0.055772 -0.038772 0.070695 -0.56689 -0.14063 -0.19882 0.658 -0.11561 0.2832 -0.34625 0.057584 -0.38833 0.64287 0.8465 -0.45884 -0.15655 0.48759 -0.34268 0.37917 -0.16575 -0.17739 0.31846 -0.11621 -0.30253 0.30596 0.13971 -0.24569 0.0053069 -0.34012 0.42872 -0.1428 -0.49622 -0.33652 0.29457 0.22389 -0.088073 -0.064518 
postar -0.2572 -0.13277 0.25726 -0.073923 -0.44626 -0.31367 -0.50484 -0.070214 0.011128 -0.59604 0.050137 -0.012589 0.04435 -0.10207 0.09392 -0.050876 -0.42703 0.024751 0.36104 0.34065 -0.12172 -0.21944 -0.014067 -0.07269 -0.049732 -0.18745 -0.033084 -0.27858 -0.43669 0.2583 0.093885 0.090379 -0.16268 -0.097662 -0.42405 -0.41074 -0.33636 0.011098 0.048695 0.072751 -0.28981 -0.15949 -0.27559 -0.24666 -0.81661 0.3604 0.021017 0.10672 -0.097012 0.089951 0.27573 -0.48759 -0.00063438 0.23552 0.16779 -0.31429 -0.24017 -0.1213 0.16055 -0.12858 -0.43798 0.07253 0.22145 0.24411 0.15512 -0.069174 0.070933 0.46304 -0.1623 0.048809 -0.077804 -0.2442 0.32667 0.38375 0.097276 0.48912 -0.0065581 -0.16072 0.38526 0.055255 -0.30137 -0.10373 0.43006 -0.31127 0.070057 -0.13287 0.035667 0.51081 -0.061548 -0.34327 0.25166 -0.37237 -0.26174 -0.22897 0.22064 -0.017296 -0.16402 -0.057659 0.097287 -0.039181 0.10001 0.10193 0.33912 -0.18246 -0.23618 0.19283 0.35491 0.063962 0.12847 -0.57371 -0.18601 0.10649 0.25201 0.33503 -0.41445 -0.019807 0.11585 -0.52241 -0.44628 -0.64965 0.3751 0.72398 -0.078521 0.12346 -0.14886 -0.37105 0.13832 0.16152 0.24398 -0.49474 -0.35591 0.16254 -0.12097 -0.055198 -0.40565 -0.30516 -0.34022 -0.562 -0.1365 0.24193 -0.66799 -0.11891 0.20245 -0.004958 0.019498 0.061522 0.53834 -0.43358 0.13782 -0.011898 0.2988 -0.26391 0.026267 0.3409 0.28892 -0.3742 -0.13104 -0.28356 -0.080749 -0.22418 0.020635 -0.011906 -0.21984 0.46639 0.079614 -0.19074 -0.029017 0.10212 -0.17472 0.14827 -0.037883 0.46018 -0.015519 -0.041527 -0.22623 -0.57766 -0.18902 -0.19654 0.47899 -0.092974 0.25343 0.21188 0.097333 0.11961 0.38588 0.15461 -0.71982 -0.29999 -0.0010788 0.2538 -0.35019 -0.031402 0.27385 0.21215 -0.0156 -0.080918 0.015884 -0.167 0.25884 -0.16149 -0.081519 0.20232 0.28613 0.047187 0.16691 -0.0033329 0.23559 0.22841 0.00094475 0.18215 -0.057476 0.24508 0.16323 -0.0060062 0.23411 -0.10159 0.17852 -0.1097 0.35702 0.10787 -0.50134 -0.24239 0.1292 -0.029531 -0.022068 0.59922 -0.12973 0.1774 -0.17399 0.095511 -0.23779 0.25743 0.44594 0.047874 0.20247 0.031379 -0.23792 0.27173 0.027688 -0.512 0.068276 -0.08173 -0.060379 -0.52068 -0.18844 0.36297 -0.076014 -0.17647 0.54314 0.34996 0.21915 -0.067782 0.065202 0.41061 -0.382 0.19105 -0.23985 0.36575 -0.10075 0.24552 0.077767 -0.096184 -0.1597 -0.10003 -0.40117 0.31091 -0.12252 0.18748 -0.45941 -0.0448 -0.067814 0.27868 -0.19337 0.26775 -0.26542 -0.68952 0.59092 0.46145 0.16035 0.27977 -0.034968 -0.25973 0.26975 0.069235 0.048452 0.10757 0.049528 0.24797 -0.12702 0.14708 -0.33195 -0.046291 0.12892 -0.54785 -0.42134 -0.53186 -0.46203 0.2558 0.076916 0.13261 
ayudauna 0.063921 -0.21163 -0.062691 0.10294 0.12989 0.065518 0.16859 -0.012847 -0.20204 0.083508 -0.024613 0.44741 0.17766 -0.13246 0.1212 -0.2869 0.016819 -0.081685 0.0056872 0.038238 -0.036156 -0.0030025 0.049814 0.066502 -0.14187 -0.23668 -0.049536 0.0031549 -0.20888 -0.22146 0.28631 0.19105 0.08013 0.13921 0.16569 -0.091928 -0.052253 0.28338 0.22939 0.051427 0.11694 -0.14734 -0.10945 -0.38437 0.17138 -0.21556 0.3932 0.1925 0.078206 0.013315 -0.24566 -0.17701 -0.057779 -0.24792 0.090416 0.1549 0.017099 0.41454 -0.00301 0.085668 -0.064251 -0.16593 0.15598 -0.026054 0.21974 0.032527 0.087703 0.21759 -0.1837 0.0035917 -0.11148 0.0053819 -0.1173 0.29425 0.12719 -0.12761 0.19881 -0.047351 0.33352 0.24133 -0.085046 0.11434 0.59883 -0.34039 0.051264 -0.054062 -0.1811 0.1073 0.0449 0.17352 0.20961 -0.17503 -0.019135 -0.00077983 -0.42322 0.28024 -0.33708 -0.074152 0.29805 -0.14107 -0.17355 -0.20429 -0.21323 -0.077651 -0.284 0.28315 0.16382 -0.23433 -0.1059 0.097732 -0.022284 -0.087153 0.40919 -0.23754 0.029725 -0.069371 -0.10746 -0.089451 -0.12607 -0.17848 -0.18509 0.30789 -0.045369 -0.17525 -0.1552 -0.3607 0.20034 0.0411 0.17905 0.21979 -0.098795 0.13271 0.3646 0.18149 -0.10411 -0.095201 0.053628 0.25336 0.059492 -0.025749 -0.29989 -0.0062752 0.057868 -0.0877 0.076552 0.20505 0.12069 -0.16829 -0.14828 0.24218 -0.17154 0.12013 0.22105 -0.19788 0.036552 -0.020111 -0.4527 0.45251 0.21155 -0.034597 0.14539 -0.12364 -0.19565 -0.05841 0.10882 0.20367 -0.32785 -0.27625 -0.28194 0.18843 -0.11592 0.13335 0.25118 -0.081052 0.043849 -0.45117 -0.045632 0.08815 0.015537 -0.2497 0.0044283 -0.17601 -0.35072 -0.16015 0.29922 -0.26732 0.20021 0.14701 0.043033 -0.013764 0.64679 0.071131 0.012626 0.0022361 -0.11326 0.22491 0.088886 -0.028576 -0.15825 0.32575 -0.08401 0.12101 0.35623 -0.12738 0.15638 -0.11518 -0.084648 -0.17488 -0.237 0.18179 0.043822 -0.099811 -0.10572 -0.25352 -0.28981 -0.062541 0.04298 -0.18344 0.3638 0.043102 -0.38576 -0.52553 -0.04944 -0.6457 -0.38543 0.21176 0.15272 -0.061204 -0.27112 -0.067209 0.46121 0.014084 0.4256 0.1275 -0.13092 -0.084553 0.39155 0.24735 -0.16087 -0.35755 0.17194 0.045517 0.083091 0.036086 0.27975 -0.04946 0.14036 0.05493 -0.10451 -0.45485 -0.071202 0.09914 -0.039368 0.1739 -0.25451 0.28 -0.17788 0.026278 -0.21692 -0.09276 0.41601 0.18169 0.249 -0.048642 -0.041082 0.12545 0.0080057 0.057161 -0.083144 -0.12988 -0.020471 0.19437 -0.098833 0.48661 -0.16649 0.25661 -0.0078167 -0.16153 0.15861 -0.23342 0.2242 -0.21842 0.25846 -0.1171 0.20116 0.053468 0.2156 0.2813 0.067468 0.060246 0.041869 -0.20469 0.11059 -0.024627 -0.31607 -0.22592 -0.015511 0.11633 0.038128 0.083394 
rechasado -0.16434 -0.47079 -0.042653 0.21007 -0.16332 0.12829 -0.24194 0.38842 0.48464 -0.73388 0.1656 0.54304 -0.28183 0.22516 0.1573 -0.45999 0.33024 -0.080949 0.15555 0.080589 0.14579 -0.2143 0.35694 -0.30994 -0.38033 0.36002 0.32224 -0.22421 -0.28903 -0.34967 0.075243 1.0092 -0.37472 -0.056575 0.16833 -0.8544 -0.15944 0.15072 -0.096032 -0.17528 0.27706 -0.15002 0.089629 0.13302 0.15681 -0.38319 0.37223 0.0020601 -0.2801 -0.10729 0.10758 -0.15443 -0.72008 0.026747 0.19502 -0.023251 0.20189 0.084255 -0.11859 0.066631 0.059281 0.11982 0.022522 -0.44282 0.019836 -0.26369 -0.014641 -0.28411 -0.029465 0.73779 -0.062248 -0.4207 -0.47162 0.19439 -0.33353 0.21718 -0.2762 -0.10417 0.29363 -0.27788 -0.0098272 -0.3573 0.051251 -0.09734 -0.25767 0.11099 0.31209 0.31752 0.093486 -0.64181 0.52024 0.2441 -0.20868 -0.11365 -0.23554 -0.14047 -0.029337 0.34985 -0.081567 0.26013 0.22035 0.072511 0.234 -0.29223 -0.11321 -0.14017 0.31144 0.014517 0.27802 -0.24238 0.46059 0.15785 -0.23384 0.30326 -0.3211 0.21263 0.21114 0.11178 -0.22947 0.16796 0.46313 0.027021 0.3275 0.15322 0.070861 -0.18375 0.052148 -0.019897 0.075783 0.32289 -0.50297 -0.16944 -0.29016 0.2596 -0.15986 -0.052481 -0.32024 -0.52229 -0.089716 0.35973 0.06412 -0.60507 0.14347 0.36659 -0.18922 -0.39949 0.2043 0.051492 0.8919 0.22609 -0.074171 0.34723 0.27108 0.37904 0.16121 -0.44088 -0.28683 0.12685 0.23779 0.30983 0.10396 -0.18233 0.27746 0.079415 -0.049032 0.17818 0.2768 -0.054647 -0.9417 -0.21572 -0.64644 0.097621 0.091247 0.16101 -0.33218 -0.26818 -0.13429 0.23423 0.03323 0.37463 -0.028313 -0.21384 0.48524 0.29494 0.38903 0.64064 0.097655 -0.058321 0.62579 0.057837 -0.24097 0.28761 0.14348 -0.11798 0.66749 0.11681 0.16591 -0.26082 -0.64131 0.3585 0.03925 -0.14037 0.6834 -0.15478 0.41116 0.3837 -0.14828 0.18015 -0.10856 0.32897 -0.14793 0.2138 0.032944 -0.2206 -0.24968 -0.29644 0.023752 0.041129 0.56512 0.11083 -0.11341 -0.40637 0.19666 -0.49313 -0.086804 0.41843 -0.45094 -0.12617 -0.5357 -0.036804 0.2827 0.10355 0.20083 0.099692 0.26505 0.11125 -0.16822 -0.010077 -0.21798 -0.11366 -0.019016 0.12837 -0.33677 0.50733 0.0075932 0.27037 0.42029 -0.15184 0.59924 -0.064806 7.567e-05 0.12351 -0.4623 0.69927 0.0035238 -0.3157 -0.15837 -0.29696 0.25415 -0.072233 0.31118 0.17888 0.23987 -0.27478 -0.2792 0.40247 0.22097 -0.021976 0.10224 -0.16145 0.12995 0.50292 -0.33166 -0.11018 -0.015115 0.16896 0.26028 0.6671 -0.08249 -0.043396 -0.30434 -0.09383 -0.1159 -0.42474 -0.016387 -0.044765 -0.098936 0.12596 0.3143 -0.33948 0.058037 0.32886 -0.40704 0.22073 -0.64194 -0.46562 0.20629 -0.10637 0.2608 0.2448 
negasteis -0.47904 -0.46256 0.14924 0.085967 0.064583 0.10655 0.048203 0.17524 0.11582 0.37974 0.11466 0.028714 -0.0037579 -0.5323 -0.25237 0.2491 -0.29703 0.14039 0.041197 0.031436 0.14011 -0.20805 0.332 -0.22028 0.055652 0.079646 0.056138 0.37432 -0.24399 -0.059382 -0.17858 0.046637 -0.40725 -0.63002 0.26348 0.17417 -0.24828 -0.066614 0.0063757 0.011987 0.10237 -0.043123 0.41875 0.020597 0.50602 -0.33901 0.026107 0.11899 0.066325 0.0060569 -0.015202 -0.077667 -0.29511 -0.099302 0.11262 -0.36764 -0.20046 0.093272 -0.17951 0.044933 -0.27554 0.2732 0.089307 -0.040093 0.49544 -0.30828 0.16319 -0.15932 -0.50874 -0.081666 -0.63068 -0.12414 0.31081 0.46181 -0.28581 -0.21461 0.60401 -0.23089 0.29446 0.0049343 0.0080682 -0.18569 0.21812 0.19126 0.16463 0.1172 0.095181 -0.16471 -0.10413 0.098498 -0.057337 0.064036 0.20263 -0.09321 0.10656 -0.054722 -0.551 -0.04294 0.52628 0.026039 -0.20548 0.35262 -0.33355 -0.045569 0.099498 -0.39387 0.2962 -0.18199 -0.12312 0.068966 0.44619 0.082558 0.062961 0.02618 -0.3784 0.38638 -0.077538 0.071716 -0.21912 -0.21092 0.5275 0.060563 0.10078 -0.0013827 0.12394 -0.38454 -0.0070079 0.5848 0.032947 0.11578 -0.2642 -0.17734 0.0034799 0.027616 -0.65289 0.12407 0.15392 -0.26752 -0.1977 0.29679 -0.42586 0.012766 0.29055 0.23249 0.01948 0.15766 0.68378 -0.028842 0.28434 0.08657 -0.060678 -0.20637 0.27275 0.42479 -0.43645 -0.25206 -0.096117 -0.071573 0.52402 0.0039116 0.44832 -0.10562 0.23677 0.037365 0.054603 0.050766 0.25303 -0.11838 0.026594 0.20542 0.21903 0.11798 -0.27674 -0.35796 -0.17537 -0.27702 -0.3373 0.099427 0.12334 -0.088448 0.0061021 -0.32741 -0.18977 -0.033055 0.039738 0.46679 0.28216 0.092703 -0.13374 -0.37237 0.033468 0.030937 0.06583 0.17446 -0.085957 -0.13743 0.065607 0.26216 -0.04907 -0.22029 0.20144 0.16389 -0.069418 -0.013226 0.33735 -0.017636 -0.1274 0.06733 -0.31154 0.11485 0.13078 0.24514 0.081572 0.44172 0.022039 0.27706 -0.070774 -0.091823 -0.32742 0.063217 -0.076339 -0.1494 0.13523 -0.41512 0.24192 0.35181 -0.26367 -0.11471 -0.12877 -0.20145 0.14148 -0.42742 -0.12167 -0.21196 0.13598 -0.19846 -0.098067 0.00073623 0.089563 -0.27814 0.027433 -0.023513 0.13166 0.19367 0.3286 -0.086815 0.2332 0.19793 0.014267 -0.036804 0.040625 0.30563 -0.35274 -0.084637 -0.084323 -0.032415 0.094517 0.11592 -0.012022 0.073251 0.091092 0.1356 -0.045088 0.3175 -0.34229 0.0018193 -0.3584 0.071807 0.47375 -0.21984 -0.23964 -0.028533 -0.24416 0.46962 -0.064042 0.063395 -0.011116 -0.021842 0.084102 0.08991 -0.13297 -0.26465 -0.24225 -0.0055224 0.17951 0.26899 0.36116 0.30714 -0.019256 0.39815 0.30323 -0.12988 0.040026 0.2923 -0.22352 -0.13879 -0.52463 -0.42854 0.31291 -0.20921 
enviais 0.34263 -0.15735 -0.12596 -0.14098 0.15994 -0.34369 0.29435 -0.20241 -0.4445 0.33953 -0.12126 0.20565 0.050432 0.028106 0.09294 -0.10432 -0.087197 0.093887 0.022003 0.053007 -0.14681 -0.20113 0.18445 -0.041909 -0.21576 0.062602 -0.40641 0.042152 -0.30926 -0.39398 0.20069 0.20227 0.13317 0.21771 0.12707 -0.3699 -0.5368 -0.012888 -0.1266 0.32033 0.20169 0.40467 0.24302 -0.26911 -0.089156 -0.047013 0.36891 0.64695 -0.27618 0.25569 -0.29838 -0.1821 -0.20781 -0.407 0.41359 0.036018 0.032296 0.31476 0.21055 0.082609 -0.13132 -0.01298 0.39518 0.078315 0.044216 0.21985 0.47762 0.17702 -0.058916 0.017555 -0.14281 -0.13219 0.10826 0.33384 0.10843 0.053916 0.042403 -0.4656 -0.081857 -0.045141 -0.48597 0.195 -0.10099 0.1264 0.13534 -0.093381 -0.041331 -0.17818 -0.030032 0.33681 0.12251 0.0072036 -0.12731 -0.11051 -0.13364 -0.0085632 -0.77435 0.21858 0.48977 -0.16174 0.049152 -0.12788 -0.37934 -0.043726 -0.52575 0.16184 0.39616 -0.095904 0.13386 0.28223 0.071439 -0.10781 0.21317 -0.036224 -0.25423 0.11917 0.16522 -0.10323 -0.51836 0.030714 0.037435 0.16626 0.10422 -0.13243 -0.30561 -0.41504 0.1251 0.0084887 0.16918 0.01934 0.23212 -0.17193 0.21504 0.28907 -0.023313 0.16028 -0.16539 -0.074484 0.11086 0.30879 -0.021226 0.30723 -0.062839 0.047416 0.081398 -0.17306 0.29824 -0.21631 0.28779 -0.099187 0.024596 -0.27489 0.33033 0.20863 0.014905 -0.061421 -0.22878 0.0054839 0.054077 -0.014845 0.39494 -0.10583 0.23749 -0.21125 0.37202 -0.02586 -0.12178 0.015083 -0.32697 0.086085 0.019694 -0.13736 0.39538 -0.17756 0.16902 -0.49856 -0.26907 -0.1502 0.079877 0.15375 -0.020518 -0.0050801 -0.11032 -0.12768 0.20401 -0.10553 0.23481 -0.14148 -0.50519 -0.15097 0.35427 0.014576 0.13798 -0.29192 0.046029 -0.059133 0.021129 0.035831 0.28588 0.17713 0.20861 0.043318 0.20672 -0.095599 0.19855 0.1067 -0.036767 -0.44313 -0.035449 -0.0015714 -0.3104 -0.036124 -0.27892 -0.24353 -0.38763 -0.16763 0.17245 -0.11227 0.73824 0.068171 -0.23553 -0.1369 0.22584 -0.38019 -0.65057 0.5077 0.29945 -0.044447 -0.076267 0.018589 -0.016412 -0.21036 -0.14193 0.35045 0.056952 -0.073567 0.4657 -0.1926 -0.20661 -0.48292 -0.073108 0.30454 0.37869 0.044115 -0.007287 0.253 0.38657 -0.22627 -0.18198 0.091657 0.023111 0.024887 -0.18074 0.022768 0.14667 0.30766 -0.033564 0.29071 -0.015477 -0.11725 -0.28416 0.010219 -0.0080188 0.16156 0.25933 -0.116 -0.18758 0.11773 0.20404 -0.10732 -0.075386 0.33781 0.10844 0.25291 -0.095188 0.30461 -0.039069 0.19594 -0.21837 0.17812 0.32532 -0.19814 -0.15338 -0.13056 0.41548 -0.34495 0.14747 0.020391 -0.19657 0.042548 -0.16172 -0.2381 -0.040282 -0.19432 -0.31773 -0.42018 0.024432 0.27803 -0.1382 -0.30174 
aptdo -0.052188 0.0059056 -0.18641 0.34672 0.24789 0.29581 -0.33669 -0.18046 0.63365 -0.38858 0.15731 -0.34123 -0.27624 0.17901 0.21096 0.087099 -0.052233 -0.089269 -0.25507 -0.077891 0.24785 -0.3865 0.49113 -0.26592 0.19907 -0.38509 -0.16092 -0.19888 0.2365 -0.0076385 -0.11903 0.17164 -0.18844 0.61055 -0.51067 0.28824 -0.32896 -0.25612 -0.65569 -0.21684 0.95457 -0.32032 0.051877 0.23196 0.13493 -0.0016738 0.38711 0.54931 -0.082821 -0.2351 0.041505 -0.08926 -0.28475 -0.17929 0.53554 0.041562 -0.38724 0.041086 -0.015834 -0.088809 0.18116 -0.10812 0.29291 0.39597 0.016703 -0.15574 0.39946 -0.35883 -0.20472 -0.6943 -0.68708 0.12238 -0.015711 0.26928 -0.41068 -0.21252 -0.20026 -0.1903 0.17379 -0.024893 -0.19505 0.58069 0.45825 0.32777 0.010065 -0.018549 0.27315 -0.3287 -0.52048 -0.14204 0.079069 0.10082 -0.27903 -0.0066498 0.15199 -0.30233 -0.2981 0.23816 0.069208 0.16146 0.21365 0.089096 0.49315 0.25461 -0.42912 -0.11993 0.64192 -0.93985 -0.68544 -0.35177 -0.10749 0.0076686 -0.10422 0.3212 -0.058515 0.19877 -0.29739 -0.05848 -0.12884 0.19048 -0.11852 0.2273 0.19692 -0.12624 0.07841 -0.6263 0.27369 -0.45345 -0.48031 0.1132 -0.18875 0.42191 0.27105 0.29473 -0.035206 -0.41613 0.21081 -0.053169 0.23051 0.28309 -0.21878 -0.017407 0.21311 -0.32821 -0.33559 -0.16456 -0.12402 0.11597 -0.21439 -0.018656 -0.43953 0.0015501 0.51059 -0.58755 -0.2244 -0.20152 0.34565 -0.34718 -0.11268 -0.7374 0.30068 0.15103 -0.29956 -0.045367 -0.15399 -0.32853 -0.023102 0.069703 -0.86041 -0.28678 -0.010792 0.45096 0.49168 -0.48981 -0.61323 -0.28434 -0.0267 -0.29543 0.1349 -0.03974 0.094269 -0.21863 0.32593 -0.73205 0.34323 0.84264 -0.88357 0.096478 -0.41847 0.58083 -0.30937 0.30657 -0.22696 -0.039543 0.12642 -0.0071484 0.50206 0.067795 -0.44877 0.37287 0.066803 0.055037 0.24247 0.22788 1.0126 0.0087178 0.16138 0.21222 -0.39435 -0.64531 -0.25938 0.0095244 0.058314 -0.2793 -0.42951 -0.37622 -0.54146 -0.10216 0.0112 0.56972 -0.071767 -0.23838 -0.020962 -0.045514 -0.17506 -0.35384 -0.23477 -0.49468 0.059156 -0.051702 -0.2986 -0.17187 0.60651 -0.21104 -0.47556 0.15091 -0.60688 0.43966 0.22158 -0.18882 -0.18689 0.4154 0.19673 1.0355 0.20349 -0.0067272 -0.2571 0.035668 0.13735 -0.17047 -0.042092 0.18689 -0.2851 -0.38121 -0.089792 0.5925 0.087049 -0.50364 0.35399 -0.20763 -0.57785 -0.70842 0.37038 -0.018685 -0.050598 -0.27551 -0.65061 -0.2123 -0.14594 -0.13413 -0.16932 -0.30167 -0.049015 0.49015 0.17289 -0.07677 0.16402 0.45025 -0.2724 -0.18833 -0.78507 0.29425 -0.15652 0.032381 0.84967 -0.20142 -0.028493 0.53447 -0.69237 -0.30565 -0.57247 -0.34384 0.38118 0.65529 -0.77017 -0.057563 -0.12274 -0.28971 -0.19324 -0.28877 
eliminadme -0.49726 -0.3554 -0.060831 -0.32922 -0.20693 0.046378 0.26402 0.20236 -0.13107 -0.43385 0.42475 0.12122 -0.22681 -0.026572 -0.22462 0.46027 -0.082953 0.18457 -0.14272 0.14747 -0.033716 0.2431 -0.26946 0.14759 -0.021835 0.073857 0.1957 0.099554 -0.50035 -0.38588 0.13939 0.19615 -0.078043 -0.18322 0.18645 0.05946 -0.24012 -0.053343 0.25744 0.091653 0.25334 -0.29335 0.21018 0.24079 -0.013853 -0.47486 -0.27393 0.22354 0.23547 0.025636 0.12149 -0.12377 -0.063962 0.087715 0.068022 -0.37763 -0.13149 -0.48179 -0.043564 -0.23499 -0.098131 -0.42131 0.24322 -0.357 0.19126 0.40782 0.0043356 0.14628 0.4458 -0.11263 -0.35435 -0.25062 0.27388 -0.33398 0.040886 -0.060089 -0.094565 0.051397 -0.0087212 0.20893 -0.0086537 -0.21425 0.32694 0.036047 0.0039491 0.015101 -0.055607 -0.5404 0.093774 -0.3876 0.10649 0.069452 0.2173 0.15147 -0.19036 -0.12259 0.082923 0.26381 -0.094983 -0.14326 -0.42351 0.366 0.097432 -0.37197 -0.14646 0.42234 0.28098 -0.053924 -0.30072 0.45957 0.14772 0.33732 0.022197 0.38418 -0.20834 0.19945 0.086168 0.088527 -0.15979 0.19415 0.068998 0.22924 0.040749 -0.063287 0.0605 -0.32283 -0.1932 -0.21812 0.2458 0.17334 0.3714 0.22713 -0.065811 0.20598 -0.33036 0.29403 0.021618 -0.40747 -0.023332 -0.18019 -0.14528 -0.0090815 -0.14753 0.024347 -0.25686 -0.20659 0.39742 -0.25871 -0.040649 0.028571 0.2657 0.069565 -0.083339 -0.76411 -0.14297 -0.13854 -0.28843 0.28497 0.043058 0.27281 0.29086 -0.12368 -0.1025 -0.21748 0.25084 0.11112 0.27568 -0.099359 -0.19328 -0.22307 0.097812 0.074704 0.019841 0.1403 -0.2596 0.1363 -0.26045 0.035749 0.15059 0.35216 -0.43823 -0.17063 0.15128 0.13931 0.20999 0.21967 -0.084737 0.57778 -0.7776 0.025629 -0.053655 -0.24996 0.22579 -0.0071717 -0.40397 0.13562 0.12289 -0.088639 -0.27807 0.18334 0.092021 -0.090927 0.1575 -0.3156 0.15755 -0.092886 -0.33225 -0.075234 0.2035 0.066271 -0.10393 0.20602 0.14639 0.099222 -0.70833 -0.17045 -0.039151 0.051064 0.11028 -0.17752 -0.45249 -0.42392 -0.082851 -0.41724 -0.038293 0.30784 -0.17299 -0.12409 -0.17274 0.11168 0.20683 -0.055254 -0.081261 0.32159 0.080351 -0.40362 0.75571 -0.23139 -0.098285 -0.68022 0.29772 -0.30936 0.48711 0.12729 0.30677 -0.25542 -0.18259 -0.11133 0.23668 0.16821 0.13636 -0.55599 -0.13107 -0.058981 -0.36434 0.041737 -0.16138 0.14808 0.054015 -0.26597 -0.0088173 0.12303 0.40252 0.18744 0.61323 -0.33452 -0.48324 0.19104 -0.16587 -0.10937 -0.12808 -0.030035 0.29669 0.67703 -0.11433 -0.0015438 0.092427 -0.14729 0.26731 -0.014241 -0.13946 -0.093188 0.066211 0.12103 0.037307 -0.10825 0.37853 0.064523 0.11225 0.074263 0.0092625 -0.34723 -0.054648 -0.12524 -0.50655 -0.37819 -0.20648 -0.14568 0.20821 -0.037518 
duspendida -0.27178 -0.28817 0.13524 0.15821 -0.082005 -0.069119 -0.13796 -0.070317 0.24878 0.32083 -0.13265 -0.48762 -0.15909 -0.48177 0.7553 -0.060766 -0.15434 0.29311 0.14932 -0.0059165 -0.083557 0.27626 0.46291 0.22682 -0.411 0.27218 0.13255 0.14225 -0.37751 -0.10394 0.054683 0.51511 0.034664 -0.29831 0.23694 -0.1946 -0.41331 0.37004 -0.19015 0.088509 0.26764 0.029351 -0.16443 0.057554 0.34823 -0.50662 0.019616 -0.46404 -0.35846 0.12938 0.48916 -0.77792 -0.19781 -0.20066 0.089842 0.0028244 -0.059206 0.29791 0.16881 -0.04363 0.11121 -0.063492 0.36586 0.26196 0.012052 -0.48733 0.303 -0.094647 0.089974 -0.26414 -0.41879 -0.13689 -0.067755 0.016772 -0.51303 -0.14873 -0.12723 0.20497 0.03308 -0.08474 0.0086579 -0.20743 0.026332 -0.059382 0.090902 0.022549 0.35682 0.2295 -0.11361 -0.11305 0.5744 -0.26252 -0.22762 -0.3474 0.051495 -0.35659 -0.58574 -0.022309 -0.0071143 -0.22165 0.22682 0.057643 0.075916 -0.59534 -0.26887 -0.0095313 0.28494 -0.28014 0.2297 -0.033511 0.073479 0.20156 -0.42772 0.067145 -0.54194 -0.1403 0.72937 0.013288 0.25013 0.070867 -0.088797 0.24287 -0.1694 0.17624 0.020347 0.22239 0.0038389 0.25277 0.048248 0.010269 -0.11787 -0.23016 -0.50839 0.23896 -0.73584 -0.3554 -0.36682 -0.40252 -0.0090007 0.12139 -0.29529 0.1791 0.16374 -0.090394 -0.51424 0.2851 -0.018891 -0.13021 -0.3362 0.27586 -0.12338 -0.10079 0.14988 -0.068565 0.20205 -0.34579 -0.19795 -0.24359 0.16896 0.28616 0.40386 0.066631 0.069259 0.16158 0.028065 -0.087555 0.47129 -0.27821 0.16182 -0.37774 0.47758 0.41975 -0.17562 -0.056696 -0.043915 0.21312 0.17886 0.23952 -0.37385 0.03288 0.23808 -0.20556 -0.21273 0.25286 0.23742 -0.12125 -0.085581 0.01886 0.14301 0.20125 0.14719 -0.0065284 -0.15482 0.051655 0.096563 0.27597 -0.19374 0.30067 -0.37707 0.27846 0.21631 0.35613 -0.04508 0.1991 -0.027563 0.066273 -0.21446 -0.043951 -0.36916 -0.05423 -0.33326 0.026893 0.10056 -0.40575 0.014549 -0.19087 0.13216 -0.091095 -0.16015 0.29906 0.12661 -0.1546 0.22579 0.29449 -0.28548 -0.25489 -0.03076 0.10116 0.20945 0.066376 0.16272 -0.16495 0.1701 0.067013 0.41959 0.064222 0.01189 -0.10999 -0.034023 0.0011277 0.46884 -0.31764 0.31202 0.25669 -0.277 -0.068243 -0.099696 -0.050741 -0.15467 -0.53493 0.16101 0.155 -0.33061 -0.12906 -0.33844 0.23631 -0.019623 -0.060774 0.25381 -0.29428 0.30453 0.12934 -0.39413 0.29826 -0.50563 -0.16207 -0.12355 0.11099 0.2508 -0.32735 -0.11535 -0.30812 -0.1399 0.022307 0.060473 -0.058639 0.25339 -0.095146 -0.011365 0.096052 -0.31431 0.20755 -0.37142 0.084003 -0.45523 -0.23843 0.20121 0.70817 -0.30717 0.028566 0.45968 -0.39856 0.19954 -0.10317 -0.20736 -0.20591 -0.16674 -0.087504 0.41498 -0.14548 
calular 0.0084647 -0.18165 -0.017571 0.21422 0.029967 0.012931 0.45376 0.067175 0.079817 0.37394 0.13983 -0.3675 -0.080877 0.054961 0.35039 -0.047502 -0.24758 0.073423 0.39197 -0.30792 -0.33556 0.26262 0.29166 0.26271 -0.18938 0.42095 0.04975 -0.15838 -0.33508 -0.40425 -0.052121 0.059646 -0.095065 -0.43949 -0.080621 0.56902 -0.22934 0.22076 -0.2223 0.23619 0.45493 -0.55944 0.060571 -0.46079 0.16088 -0.41639 0.071732 -0.27389 -0.25387 -0.0081351 0.091954 -0.043745 0.038946 -0.12843 0.16879 -0.40757 -0.027957 -0.27523 0.24984 -0.17175 -0.2932 0.22934 -0.20421 -0.38972 0.077453 0.076377 0.39799 0.002553 0.2811 -0.45511 -0.1046 -0.19091 -0.17425 0.052214 -0.33561 0.42043 0.41971 -0.029941 0.013947 0.75363 0.35025 -0.13636 0.057175 -0.14808 0.27933 0.27092 -0.41201 0.16954 0.14167 -0.006616 0.3498 -0.043218 0.61394 -0.15586 0.28496 -0.10959 -0.27282 0.42147 -0.39725 0.068467 0.070229 -0.13666 -0.12816 -0.39523 -0.1875 0.27185 0.44336 -0.40078 0.25533 0.11472 0.14848 0.21118 -0.19671 -0.26566 0.071945 -0.015477 0.39046 -0.35194 -0.40193 -0.14443 -0.04938 0.30593 -0.44279 0.33895 -0.25299 -0.18704 0.0402 -0.0093548 0.57215 0.22969 -0.34874 -0.33397 -0.14082 0.49192 -0.51102 -0.074748 0.041857 -0.21992 0.13623 -0.24776 -0.60679 0.69686 -0.12036 -0.38084 -0.29812 -0.27437 0.057984 -0.38497 0.14575 0.13651 0.014046 0.13534 0.29873 -0.08019 -0.24804 -0.22671 0.024188 0.18199 0.3368 0.096561 -0.22367 0.49243 -0.0073837 -0.44395 -0.13253 0.14381 0.16815 0.051541 -0.33468 0.15518 -0.039124 0.37611 0.010442 0.098159 0.026819 -0.13151 -0.10912 -0.060449 -0.028683 0.26938 -0.21153 0.12174 0.23692 -0.23094 0.28076 -0.092996 -0.01323 -0.050758 0.08589 -0.36699 -0.19886 0.063507 -0.13237 -0.089761 -0.27242 -0.14864 -0.25108 -0.50859 -0.028927 0.062068 -0.24653 0.38778 0.29957 0.41747 0.068743 0.16586 0.083122 0.1447 -0.19918 0.10334 -0.20306 0.015827 -0.22465 -0.34208 0.29546 0.28482 -0.41651 -0.13474 0.15929 0.14878 0.37938 -0.17636 0.23805 0.29418 0.0063202 -0.1367 -0.018961 0.44025 0.4375 0.27842 0.2152 0.48412 0.078196 -0.058061 0.59753 0.23178 0.04945 -0.41982 0.22331 0.26662 -0.27806 -0.25122 0.27611 0.45601 0.36956 -0.48092 0.026334 -0.066822 0.11984 0.0072367 -0.37935 -0.11852 0.21197 0.50623 0.52279 0.28219 0.063087 0.27924 -0.20233 0.1877 0.14417 -0.16355 0.14629 0.20098 -0.58159 0.047038 -0.0029532 0.17224 0.0028871 -0.097796 0.037442 0.017609 0.11137 0.12307 0.30053 -0.093206 0.7082 0.46136 -0.039833 -0.30869 -0.46798 -0.062507 -0.55268 -0.14239 0.18434 -0.31638 0.48956 0.51384 0.16845 0.37877 -0.068309 0.28557 0.22135 0.023937 -0.35711 -0.3663 -0.70542 -0.0086785 0.029518 -0.18002 
provedoor -0.11895 -0.35286 0.21263 0.17467 0.0050964 0.28274 0.17807 -0.030813 0.016645 -0.17267 0.18481 -0.10698 -0.16097 0.23074 -0.1527 -0.31007 0.30406 0.16824 -0.16446 0.25905 0.22583 -0.17217 -0.035196 -0.09101 -0.084826 -0.3713 0.1084 0.11149 -0.051307 -0.52894 -0.014494 0.17787 0.28202 0.16516 -0.12822 0.026934 -0.38299 -0.095699 0.42507 0.10903 -0.098109 -0.079833 -0.00064401 0.21168 -0.014526 0.14067 0.19752 0.37109 -0.19833 -0.34724 -0.0016719 -0.11363 -0.42516 -0.38613 0.20831 -0.32814 -0.15316 0.045815 0.02652 -0.15436 -0.25671 0.097206 0.28683 0.0024654 -0.081971 -0.052179 -0.086404 0.3765 0.082788 0.019877 -0.19697 -0.093101 0.047867 0.24376 -0.13115 0.10223 0.12685 -0.072057 0.24081 -0.015446 -0.29108 -0.026848 0.49141 -0.27872 0.39247 -0.077329 0.032634 0.38464 0.17604 -0.11885 0.52782 -0.11076 0.10944 0.037696 0.18017 -0.029635 -0.15938 0.21345 -0.037382 0.11728 0.20784 0.11501 0.19455 -0.32144 -0.38245 -0.097901 0.23192 -0.044177 0.12008 -0.19961 0.27945 0.65551 -0.062864 0.065215 -0.12262 0.15133 0.33207 0.024932 0.1162 -0.20096 -0.014083 0.085284 0.20437 -0.072508 -0.081386 -0.20277 0.16724 0.10107 0.15195 -0.25554 0.065347 -0.055003 0.053281 0.24989 0.12604 0.014616 0.10063 -0.091007 0.081262 0.38616 -0.078833 0.15348 0.042642 0.17683 0.012247 0.058538 0.085803 0.11306 0.048386 0.0074414 0.044713 -0.092205 0.33404 -0.28404 -0.11412 0.11045 0.045438 0.072033 0.11325 -0.037267 0.31668 0.045696 -0.23863 0.16377 0.1533 -0.086904 -0.1637 0.30857 -0.21354 0.15254 0.11734 -0.081837 0.20846 -0.41013 -0.20287 -0.56932 -0.27743 0.0041328 -0.032752 -0.25217 -0.14808 -0.17393 -0.15279 -0.11066 -0.044653 0.083301 -0.37348 0.23771 -0.15357 0.09398 0.16895 0.13378 -0.13884 0.027889 0.25201 0.19305 0.21138 0.23171 -0.28201 0.134 -0.44225 0.1856 0.48201 -0.21586 0.44741 -0.3028 0.35581 -0.26588 0.053701 -0.096876 0.16673 0.05647 -0.017407 0.43854 0.15276 -0.1632 -0.10125 -0.12738 -0.11551 -0.17572 -0.062899 0.1379 0.085539 -0.18108 -0.22756 -0.014094 0.030527 -0.17497 0.27473 0.064754 0.28439 -0.2427 0.18333 -0.1455 0.087627 -0.091217 0.46446 0.016747 0.31031 -0.28457 0.0054332 0.11973 -0.50703 -0.053527 -0.10207 -0.047156 -0.094734 -0.19168 -0.02398 -0.014235 0.1485 0.16618 -0.24773 0.28698 -0.00831 0.058539 0.21195 -0.18045 -0.015717 -0.084458 0.088075 0.10246 -0.41583 -0.060818 0.26774 0.0048326 -0.22648 -0.070186 -0.29176 -0.28781 0.037276 -0.17302 -0.15341 0.39867 0.085371 0.0072965 0.20309 -0.10622 -0.29382 0.23425 -0.022987 0.12162 -0.031204 0.21309 0.32918 0.012884 -0.097865 0.21589 -0.30301 -0.055862 -0.18569 -0.21627 -0.04546 -0.1138 -0.61989 -0.17922 -0.14862 -0.25839 0.1168 -0.01862 
ipay 0.4542 -0.19755 0.18831 -0.30033 0.11838 0.45965 -0.55538 -0.21551 0.071259 -0.37968 0.78158 0.056333 -0.20405 0.41198 -0.44235 0.1123 0.24621 -0.05474 0.33799 0.72683 -0.30452 -0.077862 -0.32416 -0.11766 -0.40273 -0.19834 -0.43902 0.13666 -0.14745 -0.14942 0.40386 -0.11769 -0.14021 -0.17385 0.46612 -0.41863 -0.75878 0.41034 0.20653 -0.05761 -0.046659 -0.25647 0.016684 -0.034436 -0.12932 -0.23374 0.063648 0.27505 -0.70866 -0.20955 0.14014 -0.053231 -0.10371 -0.66391 0.57515 -0.18435 -0.15154 0.14591 0.021351 -0.63982 0.039634 -0.29405 -0.05464 -0.23829 0.011692 0.12085 0.7349 0.075099 0.14401 -0.22436 -0.5112 0.23672 0.086676 0.2671 -0.044455 0.37009 -0.31787 -0.022935 0.31077 0.30703 -0.89284 -0.28972 0.48798 0.0024861 -0.1048 -0.28979 0.28625 0.24286 0.45094 -0.24244 0.16234 0.051501 0.04998 0.32408 -0.056492 -0.039902 0.083432 0.37066 -0.2598 0.064671 0.4438 -0.37981 0.17901 -0.32077 -0.35939 -0.095876 0.5247 -0.72912 -0.14842 -0.096833 0.12711 0.65137 0.070923 0.35551 -0.079564 0.23581 -0.049744 0.030938 0.16956 -0.057658 0.47641 -0.061522 0.22498 -0.16099 -0.28403 -0.42764 0.36626 0.35834 0.36979 0.1585 -0.15169 -0.20525 -0.12016 -0.10201 0.045674 0.62089 -0.15065 -0.26947 -0.11893 0.23125 0.38301 -0.25963 -0.2995 -0.39271 -0.37036 0.038433 0.20423 0.078095 -0.12173 0.22581 0.30194 0.33443 -0.039311 -0.31428 -0.26853 -0.48224 -0.1754 -0.09876 0.1009 0.26528 -0.31609 0.085085 0.16962 0.13105 0.13773 -0.42907 0.071801 0.22868 -0.20803 0.14496 -0.17618 0.035541 -0.35275 -0.021325 0.029562 0.042113 0.11452 -0.1185 0.19505 -0.12249 -0.30685 -0.030554 0.36515 -0.17901 0.14427 0.42784 -0.19508 0.2173 0.040586 0.79717 -0.019981 0.32472 -0.53908 0.21999 -0.047769 -0.27637 0.28905 0.010323 0.31823 0.44358 -0.074644 -0.32977 -0.15363 0.092381 0.34399 -0.073361 0.064367 -0.0053521 -0.15924 -0.087505 0.15979 0.046801 -0.46828 0.32382 -0.1323 -0.25053 -0.2492 -0.13193 -0.65077 -0.18404 0.050385 -0.34726 -0.057628 -0.73572 -0.10996 0.04125 -0.10053 0.046632 0.081751 0.061847 0.46758 0.048596 0.064523 -0.029668 -0.0095038 0.33319 -0.16759 -0.15463 -0.18433 -0.40562 0.086231 0.15975 0.39469 0.22271 -0.24417 0.0014371 -0.19621 -0.28614 0.4504 -0.36656 0.19786 -0.46808 -0.24515 -0.015282 -0.26241 0.26104 0.97526 -0.12707 -0.065651 0.22058 -0.10213 -0.099775 0.21579 -0.03656 -0.21684 -0.37797 -0.076171 -0.15623 -0.61751 0.35025 -0.50319 0.19025 -0.63654 0.34276 0.2915 0.5174 0.49016 0.39748 -0.60775 0.20571 -0.19202 0.28837 0.038789 -0.46457 0.32935 0.30877 0.51945 0.2372 -0.0096068 -0.26202 -0.5543 0.057377 0.18598 0.11549 -0.41097 -0.0075585 -0.41177 -0.29484 0.053391 0.32935 
mezclais -0.14345 -0.14487 -0.042781 -0.32198 0.15233 0.28686 -0.075602 0.19419 -0.16101 -0.80067 -0.10898 -0.22703 -0.035602 -0.036421 -0.081938 -0.048552 0.22446 -0.17448 0.30132 0.07756 0.42168 -0.15841 -0.020186 -0.16612 0.25289 0.22357 0.13306 -0.46616 -0.32282 -0.15262 -0.041938 0.4238 0.045764 -0.18669 0.17745 0.30625 -0.12599 0.041251 -0.20806 -0.087217 0.29113 0.018465 -0.20362 0.12337 0.42506 -0.32612 0.23314 0.45752 0.088623 0.34494 -0.27636 -0.34898 -0.31598 -0.27973 -0.11637 0.067902 -0.39057 -0.040103 0.25193 -0.17707 -0.17183 -0.36597 -0.15562 0.056018 0.18043 0.020814 0.32774 0.012714 -0.31048 0.55079 0.22133 -0.067256 -0.072192 -0.15052 -0.31401 0.29284 0.068686 0.039176 -0.027372 -0.18709 -0.16229 0.027 0.37006 -0.055519 0.2563 -0.089036 -0.063467 -0.11385 0.30558 0.26284 0.27624 0.28985 0.39453 0.40608 -0.072905 -0.41369 0.044777 0.20977 0.03184 0.036096 0.04871 -0.21965 -0.11344 -0.14893 -0.012078 -0.013124 0.20937 0.076869 0.28707 -0.11161 -0.090138 0.052428 -0.38041 -0.062853 -0.15923 0.15991 0.17914 -0.043727 0.10877 -0.25742 -0.20348 -0.073128 0.13224 0.23674 -0.081274 -0.024149 -0.10052 0.17223 0.4077 -0.020214 0.10475 -0.35929 -0.18549 0.14066 0.04053 0.25463 -0.39049 0.14766 -0.18777 -0.068052 -0.12922 0.11901 0.31298 0.061919 -0.070555 0.29596 -0.15272 0.1693 0.2115 -0.45954 -0.19619 -0.015668 0.078964 0.31182 -0.28918 -0.35602 -0.35522 0.46193 0.13538 -0.26116 -0.056398 0.3132 0.18756 -0.0046774 0.28086 -0.25696 0.088747 0.2949 -0.18602 0.0046463 -0.23185 -0.45058 0.27103 0.10888 -0.10689 -0.24658 -0.41377 0.33255 -0.070312 -0.037926 -0.29313 0.064291 0.11848 0.016638 0.2345 0.43763 0.17773 0.096497 0.20758 -0.070534 -0.0049237 0.21634 -0.031736 -0.26654 -0.040664 -0.058825 0.15941 -0.20821 -0.30621 0.13124 -0.043247 0.53092 0.28447 -0.13246 -0.078662 0.16714 -0.40091 0.13247 0.088004 0.0094589 -0.18636 -0.24095 -0.10595 -0.20807 -0.28662 0.03395 -0.079049 -0.040026 -0.17226 -0.17211 -0.52072 -0.49955 0.1647 -0.33858 -0.11847 -0.040745 -0.10716 -0.0065422 0.33415 -0.14563 0.20601 0.25395 0.57783 0.37485 -0.14294 -0.11045 -0.029017 -0.0043299 -0.3869 0.24224 -0.023144 -0.47264 -0.10482 0.082009 -0.50147 -0.05909 0.07997 -0.034771 -0.079879 -0.043897 -0.055775 -0.28481 0.12397 0.19579 -0.16178 0.11594 -0.048814 0.012628 0.085342 -0.24155 0.15069 -0.072044 -0.35306 -0.15353 -0.098387 -0.086748 -0.65528 0.20569 -0.17456 0.018956 0.46022 0.20006 -0.18572 0.21028 0.076356 0.06801 0.12476 0.49895 -0.094677 0.15883 0.019175 -0.049903 -0.51884 -0.10738 0.041052 -0.059009 -0.055428 0.14985 -0.49927 -0.10865 0.026955 -0.45098 -0.2684 -0.58484 -0.48009 0.28182 0.1508 -0.27649 0.45165 -0.15842 
moneycard 0.14395 -0.30993 -0.09105 0.059766 -0.12535 0.39285 -0.68658 0.018973 -0.39491 -0.38657 0.58912 -0.097733 0.34533 -0.28464 -0.15945 0.042039 0.18008 0.36182 0.20768 0.57112 -0.28796 0.084519 -0.11568 -0.093054 0.20638 -0.3137 -0.087601 0.25968 -0.061185 -0.45733 0.063486 -0.27761 -0.21651 -0.55092 0.23686 0.15266 -0.52062 0.31528 0.30425 0.13173 -0.040136 0.11117 0.17422 0.40862 0.60194 -0.072017 -0.38386 -0.12912 -0.43409 0.16383 0.06853 -0.18369 0.092005 -0.53595 0.63632 -0.29159 -0.0044554 -0.33658 0.14758 -0.12942 -0.412 -0.38712 0.058208 -0.45198 -0.64046 -0.17384 0.068473 -0.014992 -0.020722 -0.16504 -0.62293 0.36695 0.20215 -0.18896 0.63788 0.54053 -0.03753 -0.092784 0.0023256 0.26775 -0.40594 0.29646 0.19382 -0.089519 0.4075 0.069268 0.29296 0.24298 0.2627 -0.41045 0.59601 -0.10715 -0.088797 0.40645 0.20506 -0.019368 -0.095686 0.46736 -0.56167 -0.10181 -0.040889 -0.29133 -0.11181 -0.27119 -0.48279 0.37208 0.22752 -0.15897 0.041735 -0.23214 -0.11034 0.12939 0.092221 0.16765 0.043328 0.18062 0.00946 -0.047472 0.0061711 0.0047482 0.48446 -0.34395 -0.051993 0.21532 0.030799 -0.065359 0.22932 -0.21133 0.63016 0.43738 0.29322 -0.12934 -0.1586 0.035773 -0.058642 0.11101 0.22736 -0.431 -0.13902 0.023968 0.13642 0.058861 0.03262 -0.16934 0.045354 -0.0088416 0.31122 -0.081223 -0.34043 -0.064949 -0.045248 0.14454 0.311 -0.21323 -0.15415 -0.21163 -0.49436 0.085248 0.17161 0.010325 0.066678 -0.17327 0.025927 0.10256 0.33591 -0.30393 -0.07366 0.11885 -0.049132 0.17325 -0.04289 0.60654 -0.73402 -0.41763 -0.71251 -0.10061 0.083618 -0.26565 0.22994 0.24421 -0.46193 -0.14714 -0.30322 -0.23406 0.57121 0.39146 0.11874 -0.076645 -0.16842 -0.1147 0.30536 0.31192 -0.35942 -0.34269 0.32564 0.24426 0.22683 -0.17858 0.27048 0.095347 0.14767 0.10797 0.039163 0.13612 0.18341 -0.0039874 0.148 -0.37149 -0.22128 -0.14306 0.24504 -0.31972 -0.5637 0.43885 0.27183 0.06191 0.066614 -0.33858 -0.35805 -0.13582 -0.40227 0.042768 0.10794 -0.65 -0.033936 -0.0061408 -0.13009 0.13501 -0.09284 -0.097491 0.84388 -0.12109 0.60775 -0.21798 -0.28834 -0.22979 0.12905 -0.23399 -0.30708 -0.46909 0.30836 -0.6926 0.11388 0.10168 -0.069037 -0.58632 -0.073213 -0.0058867 0.38438 -0.21085 0.079966 -0.11808 -0.11276 -0.075046 -0.28563 0.37899 0.27533 -0.0091712 -0.081965 -0.0071671 0.44821 0.010695 0.27169 0.51894 -0.42131 -0.050466 0.019594 -0.28496 -0.41913 -0.24098 0.0092165 0.0096908 -0.89926 0.51749 -0.30563 0.30721 0.77989 -0.076189 -0.5726 0.013855 -0.35098 -0.064492 -0.14266 -0.29685 0.13671 -0.11074 -0.010543 0.31877 -0.13881 0.12922 -0.41694 0.13705 0.29779 0.28372 -0.38205 0.20539 -0.24731 -0.13487 0.0013525 0.074397 
apafrece 0.21018 -0.060873 -0.106 -0.10873 0.0089809 -0.26668 -0.061904 -0.27558 0.27916 -0.23039 0.10698 0.22621 0.0298 0.22328 0.26111 -0.042512 0.21899 -0.0017315 0.081016 -0.082719 0.075516 0.073307 -0.13371 -0.16348 -0.2759 0.091166 0.3205 0.14048 0.39912 -0.46819 0.028714 0.15725 -0.019777 0.041374 -0.12996 -0.23274 -0.4446 0.13148 0.37958 -0.15895 0.21964 0.041281 -0.27775 0.027196 0.12711 -0.02806 0.28571 -0.15333 0.23767 0.18064 0.35215 -0.1145 -0.028426 -0.13177 -0.095706 -0.00975 0.53096 0.10935 -0.13501 -0.08848 -0.031044 0.10252 0.25087 -0.039256 0.2024 0.077423 -0.093961 -0.10982 -0.11654 0.11753 0.23358 0.024115 -0.15099 -0.046325 -0.17446 0.20359 -0.080325 -0.35132 0.12755 -0.17181 0.095385 0.29031 0.17951 -0.25495 0.27066 -0.24763 -0.5023 0.1261 -0.017373 -0.27824 0.21094 0.026864 -0.41645 0.21134 -0.11387 0.15236 -0.4698 0.0081779 -0.18091 0.1433 0.026202 -0.14766 -0.10309 0.031321 -0.25658 0.28722 0.51762 -0.063042 0.38447 0.18663 0.15649 0.16727 -0.32178 -0.20299 -0.23322 0.3744 0.091509 -0.11393 -0.080323 -0.02934 -0.079051 0.071037 0.14634 -0.10632 -0.46754 -0.041915 0.37129 -0.0047849 0.063072 0.056802 -0.0087176 0.04712 -0.18531 0.32429 -0.1882 0.19354 -0.45395 -0.21651 0.4442 0.38318 -0.091692 0.048999 -0.14798 0.231 -0.020042 0.040305 0.18228 -0.27673 -0.1962 -0.073577 0.23649 -0.14061 0.15839 0.010624 0.045729 -0.14516 0.10701 0.010964 -0.40432 0.12896 0.080377 -0.17105 -0.23642 0.24423 -0.091935 -0.12987 -0.063375 -0.10412 -0.12089 0.093738 0.092768 0.20742 -0.037324 -0.42049 0.10847 -0.070367 -0.33075 -0.27332 -0.2985 0.46725 0.026399 -0.003129 0.020303 -0.19131 0.19462 -0.11446 0.19146 0.14332 -0.24682 0.30961 0.43309 0.21555 0.034711 -0.14727 0.080341 0.31735 0.0032224 0.065714 -0.0003503 0.10611 0.1559 -0.044936 0.24125 0.15797 -0.070802 0.27322 0.17023 -0.07974 -0.14657 -0.0070649 -0.091611 0.32699 -0.24247 -0.21947 -0.072971 -0.66686 0.25755 -0.14566 0.25868 -0.03491 -0.00072018 -0.11984 0.17756 -0.33101 0.22999 -0.046487 -0.023812 0.077968 0.0336 0.13122 -0.10508 -0.062762 0.23262 0.096147 -0.014808 -0.058106 0.24389 0.068531 -0.32621 -0.25787 -0.13921 -0.27383 0.35802 -0.10195 0.10265 -0.1514 0.18884 -0.26466 0.16544 -0.080114 0.011962 -0.15412 -0.1291 0.2179 0.10403 0.087418 0.16874 0.25263 0.12611 -0.23797 -0.20786 0.56051 -0.060185 -0.13808 0.0021384 -0.41528 -0.31197 0.30609 0.11163 0.15848 -0.23767 -0.15228 -0.16087 0.11382 0.21224 0.13529 0.11852 -0.011767 -0.085215 0.10026 0.0050136 -0.18938 -0.11018 -0.15623 -0.073951 -0.099066 0.24904 0.34577 -0.28674 -0.030163 -0.22142 -0.090493 -0.017399 0.36588 -0.70057 -0.16438 -0.14578 0.16107 0.22986 -0.046832 
deaciivada -0.024332 -0.055406 0.06724 0.21009 -0.24955 0.0031416 -0.38535 -0.32079 -0.1959 0.14691 0.0038052 0.085071 -0.15788 -0.14009 0.35318 0.088873 0.12307 0.11289 0.32106 0.09723 -0.029424 0.15885 0.19114 -0.11224 -0.16988 0.072088 -0.4107 -0.57263 -0.29737 -0.45356 0.275 0.096195 -0.09342 -0.15497 -0.070583 -0.49816 -0.14884 0.22799 -0.54082 -0.31284 -0.042374 -0.1319 -0.089708 0.3448 0.59654 -0.051037 0.34973 0.24897 -0.088981 -0.242 0.12628 -0.38833 -0.28737 -0.37242 -0.0204 0.03922 -0.23136 0.21313 0.56646 -0.33363 0.2836 -0.02804 0.11993 -0.12444 0.37926 0.00033814 0.48264 -0.26353 -0.26531 0.50066 -0.74318 -0.31674 -0.22305 -0.16354 0.064102 0.14276 0.10084 -0.14076 0.80871 -0.22229 0.082409 -0.10051 0.33895 -0.050445 0.17732 -0.025373 -0.21649 0.40076 0.073443 -0.54501 0.43415 0.12701 0.011053 0.413 0.039005 -0.35283 0.80682 0.16229 -0.2496 0.36073 0.18432 -0.13703 0.029517 -0.22639 -0.19159 -0.32257 0.46449 -0.42857 0.011212 -0.614 0.24146 0.13404 -0.47577 0.058642 0.10682 0.098586 0.26662 -0.43557 0.072723 -0.007733 -0.043652 -0.12433 0.18556 0.13831 -0.55586 0.38081 0.32438 0.44953 0.54902 0.11772 -0.31414 0.39222 -0.57353 -0.12279 -0.35556 -0.098132 -0.32914 -0.15237 0.58951 0.023352 -0.17372 0.20591 -0.21867 0.061186 -0.82307 -0.021524 -0.12175 -0.40277 -0.15917 0.19997 -0.35456 0.24694 -0.3915 0.042156 -0.23306 -0.70632 0.066667 0.44046 -0.075788 0.45041 0.46177 -0.14744 -0.34586 0.10831 -0.18833 -0.35876 -0.1935 0.24909 -0.1319 -0.13589 -0.30582 0.39978 0.10341 0.364 -0.16074 -0.11863 0.2077 0.091932 -0.099137 0.171 -0.28654 0.0044621 0.047125 0.21491 0.11905 0.035724 -0.42575 0.13466 0.0081158 0.28565 0.24595 -0.11923 -0.11481 -0.37396 -0.043979 0.35856 0.17476 -0.043654 -0.082556 0.16472 0.25417 0.1338 0.38582 -0.4092 0.36707 -0.091666 0.17097 0.25787 0.0033724 0.017167 -0.1147 -0.047684 -0.30654 0.087867 0.33795 -0.14492 0.066594 -0.35118 -0.14121 0.21778 -0.030794 -0.97117 0.42041 -0.42685 0.0084257 0.16574 -0.25083 0.34927 0.45531 -0.027407 0.35739 -0.066873 0.24347 -0.029316 0.10565 -0.31501 0.28838 -0.12988 0.16799 -0.13696 0.26819 -0.29633 -0.42871 0.066707 -0.051984 -0.13895 0.28399 -0.5402 -0.22193 -0.34682 -0.21449 -0.13816 0.32814 0.21731 -0.011866 -0.043773 0.18472 -0.27228 0.20691 0.15264 -0.11285 0.0503 -0.13754 0.32601 -0.33909 -0.04468 -0.021708 0.42486 -0.18246 0.19862 -0.11241 -0.25294 -0.018514 0.072109 -0.091731 0.037419 0.39365 0.33437 -0.42175 -0.13232 0.090602 0.18664 -0.17352 -0.028611 -0.16686 0.22557 -0.080737 0.59704 0.018976 -0.53089 -0.62876 -0.031138 -0.38203 -0.35751 -1.1102 -0.61791 -0.41337 -0.37657 0.43359 0.1757 
valuations -0.17545 0.046112 -0.29115 -0.27393 0.055116 0.27708 -0.79429 0.3231 -0.21853 -0.086891 0.1047 -0.20684 0.43043 -0.27825 -0.45794 -0.29327 -0.35236 0.40051 0.22957 0.19737 0.28505 -0.045924 -0.14381 -0.3553 -0.30364 -0.08897 -0.18309 0.35294 -0.44435 -0.36668 0.12029 0.28627 0.076998 -0.060612 -0.11556 0.43234 -0.57725 0.18762 0.31759 0.090397 0.24136 0.10192 -0.034843 0.1401 -0.10188 0.05751 -0.28001 -0.35259 -0.43407 -0.0099029 -0.23962 -0.20364 0.19248 -0.15623 0.49194 -0.75359 -0.41621 0.27595 0.0079069 -0.60231 -0.22848 -0.4601 0.39124 0.17951 -0.68189 -0.31054 0.40878 0.28423 -0.04671 -0.41863 -0.74864 0.36628 0.20776 -0.16078 -0.02042 -0.064885 -0.19571 -0.22087 0.36328 0.24775 -0.92836 -0.22454 0.28737 -0.38525 0.30742 -0.42183 0.32317 0.53899 0.7293 -0.15571 1.2257 0.26472 -0.044538 0.28075 -0.22456 -0.48208 -0.53767 0.41851 0.13705 -0.020459 0.30735 -0.038974 -0.023276 -0.08568 -0.30839 -0.029918 -0.52508 -0.15122 0.17635 0.23459 0.35894 -0.10497 -0.44858 0.40767 -0.073003 -0.088087 0.28531 -0.2715 -0.1292 -0.0019821 0.10324 -0.26831 -0.2868 -0.044802 -0.19953 0.23097 0.18965 0.048229 0.12333 0.22442 -0.12481 -0.056672 0.19918 0.21531 0.23973 0.07473 0.4681 -0.9388 0.4126 0.31552 0.29946 0.21391 -0.16744 0.16046 -0.048342 0.032213 0.1477 -0.046608 -0.79583 0.0066194 -0.25447 -0.025191 -0.13497 -0.59169 -0.34429 -0.48162 -0.77612 0.083089 0.44061 -0.50254 0.28868 -0.067916 -0.016474 -0.078239 -0.029469 -0.40882 0.1571 0.023318 -0.51641 -0.73489 0.26104 -0.27883 -0.24164 -0.41761 0.19421 0.17428 -0.52544 -0.1722 -0.026643 0.27193 -0.32269 0.26359 -0.13629 -0.266 0.16548 0.37292 -0.25823 0.039023 0.1605 0.13797 -0.014218 -0.035219 -0.11759 0.027106 0.17016 0.51554 0.25251 0.31883 -0.1385 0.36744 -0.11759 0.13413 0.2971 0.10358 0.17912 -0.65691 0.46008 0.10125 -0.47597 -1.0254 -0.1689 0.49471 -0.094176 0.041072 0.59239 -0.19796 0.30316 -0.00078851 0.096785 0.08376 0.35235 0.16873 0.028262 -0.55392 -0.30073 0.084584 -0.29068 -0.36989 0.20795 0.057007 0.35168 -0.090563 -0.13156 -0.49817 -0.17503 -0.014874 -0.073404 -0.34999 -0.12123 -0.080965 0.078342 0.15914 -0.032165 0.31657 -0.10312 -0.4596 0.3107 0.16055 0.50686 -0.42558 -0.3428 0.28899 -0.11761 -0.26771 0.11795 -0.069602 0.46166 -0.45264 -0.35024 -0.004252 0.083289 0.065754 -0.088381 -0.027087 -0.21645 -0.010463 -0.33063 -0.4976 0.18613 0.72534 -0.11399 0.36445 -0.48538 0.40926 -0.035927 0.64217 0.40831 -0.040245 -0.48486 0.54746 -0.48122 0.13079 -0.15986 -0.14876 0.29721 0.12532 -0.44238 0.32429 0.036231 -0.40589 0.11725 -0.18831 0.76832 -0.30026 -0.28829 -0.75392 0.14872 -0.30248 0.33793 -0.24175 
distupa -0.29175 0.36384 0.097577 -0.38297 0.14305 0.54569 0.099957 -0.42832 -0.0039621 -0.19859 -0.17793 -0.029307 0.59992 -0.52058 0.11038 0.017264 -0.030791 -0.17838 0.72676 0.20812 0.0079575 0.1923 0.29943 0.3345 -0.40279 -0.54928 -0.26439 -0.47751 -0.19431 -0.24205 0.35088 -0.00029609 -0.38773 -0.43726 0.080847 0.062274 -0.1012 0.38889 -0.36962 0.48649 0.1999 0.093915 -0.035358 -0.85994 0.35477 0.0050154 -0.16562 0.057625 -0.33664 -0.069139 0.49247 -0.035599 -0.63521 0.0057646 0.25487 0.10566 -0.044056 0.077701 0.21452 -0.072747 0.47486 -0.17094 -0.010718 -0.15642 0.48536 -0.13725 -0.023269 0.33165 -0.2646 -0.017255 -0.71131 -0.27072 0.10273 -0.3343 0.32973 -0.20603 0.24829 -0.19818 0.059738 -0.057115 -0.050347 -0.0035579 0.82693 -0.39073 0.38141 0.3872 -0.14437 0.61871 0.32594 -0.37306 0.52166 0.095099 -0.53511 -0.0058451 -0.1457 0.12288 -0.2317 0.097292 -0.077765 0.32591 0.36313 0.55092 -0.17747 -0.10619 -0.26477 -0.50034 -0.10524 -0.18229 0.35024 -0.065595 -0.45571 0.20641 -0.38039 -0.029326 0.17721 -0.14657 0.37501 0.10006 -0.14608 -0.17528 0.29241 0.10513 0.42557 0.19284 -0.31804 -0.54539 -0.072654 0.41221 0.77458 0.18854 -0.080899 0.0079821 -0.29184 -0.11981 -0.23665 -0.059461 -0.38489 -0.30875 0.54646 -0.44334 -0.10063 0.38375 0.084166 -0.48309 0.026069 0.11026 0.088066 0.03285 0.5861 0.030628 0.2516 0.28335 0.38377 -0.37888 -0.66845 -1.2517 -0.36098 0.22086 -0.19171 0.17731 -0.14781 -0.46779 0.085262 -0.25639 0.25644 -0.069105 -0.43631 -0.23979 -0.11295 -0.067183 -0.40166 0.75329 -0.59358 0.012846 -0.32771 0.22483 0.36734 0.09261 -0.37283 0.29235 0.48511 0.46192 0.27139 -0.039492 0.33131 0.45326 -0.32674 0.39443 -0.013527 -0.14697 -0.29821 -0.096661 -0.58529 -0.058285 0.10868 -0.011006 0.53937 -0.28044 0.25897 -0.11615 -0.3853 0.43984 0.27003 0.018099 -0.24795 -0.42043 -0.010657 0.21852 -0.20054 0.21043 -0.19658 0.22518 -0.28071 -0.10683 0.51267 0.222 -0.05527 -0.4202 0.12832 0.48499 0.53198 -0.1871 0.37957 0.040816 -0.0064646 0.21571 0.30033 -0.20334 0.31063 0.26185 0.21128 0.074624 0.32287 -0.26225 -0.12497 0.23484 0.25011 -0.17633 -0.079647 -0.29061 0.24361 0.1195 0.046605 0.51363 -0.071241 -0.37609 0.2827 -0.26582 0.026769 -0.67167 -0.18684 0.086981 0.0027144 0.45345 -0.22883 0.58163 -0.58493 -0.31396 -0.18233 -0.29324 0.32775 -0.94001 0.21076 0.63487 -0.49872 -0.28433 0.26228 -0.0229 0.12146 0.55271 0.39435 -0.021567 0.41034 -0.22678 -0.26999 -0.43876 -0.26396 -0.011683 0.19237 -0.025638 -0.13583 0.02324 0.044526 0.24044 -0.23277 0.053864 0.16636 0.082088 -0.38797 -0.91564 -0.44358 -0.54297 0.042577 -0.12777 -0.28485 -0.69527 -0.83304 -0.049242 0.14005 0.38502 
ativar -0.47414 -0.33632 -0.1446 -0.68476 -0.16876 0.47034 -0.2792 0.23268 0.29473 -0.24655 -0.13962 0.55799 0.17759 -0.12111 -0.55674 -0.19303 0.16863 0.026865 -0.19444 0.27337 -0.2435 -0.30127 0.39637 0.5126 0.24309 0.1693 0.23026 -0.46769 0.01808 -0.25973 -0.070487 0.16354 0.00018336 0.081324 0.17479 -0.11363 -0.22052 -0.0033354 -0.32291 -0.16201 -0.017977 0.049247 -0.19335 -0.34466 -0.17472 -0.28826 0.53375 0.31506 -0.19885 0.31573 0.09235 -0.087751 -0.24965 -0.023758 0.029758 0.12749 -0.21971 -0.39703 0.024831 -0.34837 -0.027397 -0.1475 -0.014814 -0.11325 0.50334 0.071289 -0.24084 0.18289 -0.41312 0.23111 -0.1575 0.0090207 -0.1525 0.12827 -0.1103 -0.22032 -0.10136 0.22376 0.02873 0.037892 -0.61111 -0.18277 0.51184 -0.5258 0.037217 0.2338 0.21248 -0.017575 -0.14834 -0.0060772 0.14332 0.084677 0.27504 0.010419 0.16904 -0.069655 0.076488 -0.78129 0.09168 -0.12236 -0.034638 -0.27672 0.13374 -0.16523 -0.31584 -0.28892 0.16615 0.30314 -0.21011 -0.38479 -0.22627 0.10928 0.38658 -0.25589 0.35008 -0.084891 0.04476 0.1498 -0.099431 -0.67746 0.081108 0.28904 -0.5438 0.24736 -0.12836 -0.070364 0.12413 0.18214 0.061963 0.060818 0.11405 -0.15025 -0.22555 -0.16259 -0.10431 -0.046777 0.28657 -0.15566 -0.03497 0.3552 0.085956 0.1902 -0.13033 0.1897 -0.28534 0.036749 -0.13064 -0.12599 0.024851 0.45534 0.38262 -0.35306 0.21187 -0.13492 0.1323 0.012132 0.068202 0.040259 0.24964 -0.010859 0.14321 -0.092261 -0.18167 0.32752 -0.4944 -0.35335 0.4004 0.045493 -0.12612 -0.26099 -0.26373 -0.11298 0.0075653 -0.449 -0.082848 0.21566 -0.093351 0.032196 -0.18699 0.098517 -0.40499 0.0023618 -0.076301 -0.42975 0.025202 0.16912 -0.067431 0.12933 -0.31234 0.19044 -0.53295 0.45349 -0.26103 -0.43179 -0.496 0.34062 0.010953 0.20168 0.33607 0.31308 0.45988 0.5726 0.18873 0.12159 -0.00029697 0.093864 0.25093 -0.21265 -0.381 0.10302 0.40001 0.038068 -0.0057485 -0.05485 -0.17561 -0.24605 0.074779 0.1506 -0.2477 0.36419 -0.718 -0.55187 0.051537 0.0022274 -0.27261 0.036595 -0.24134 0.20196 0.25062 0.091819 0.21484 0.030415 0.27774 -0.15607 -0.30195 0.048382 0.40879 0.1837 0.059645 -0.015838 -0.4397 0.14819 0.32168 0.2631 -0.26226 0.028012 -0.094685 -0.23585 0.25711 -0.43727 -0.25465 0.22446 -0.010291 0.23078 -0.23371 0.070473 -0.016934 0.33302 0.17441 -0.389 0.14591 -0.18988 -0.527 -0.22286 -0.31139 0.48813 -0.28056 0.46067 0.51551 0.24396 0.02699 -0.16914 -0.17701 0.061905 -0.030488 -0.55932 0.44224 0.074156 -0.53221 0.21133 -0.30722 -0.094109 0.01629 0.048196 -0.089748 -0.060016 -0.14775 0.40979 -0.043072 -0.06031 0.048164 0.3068 -0.30111 -0.25363 -0.92313 -0.3419 -0.46783 0.053979 0.38372 -0.12216 
inmediatamete 0.16387 -0.065046 -0.2822 0.08333 -0.011664 -0.14959 0.03065 0.13749 -0.21076 -0.055508 -0.0090373 0.31702 0.010181 -0.13793 -0.42555 -0.19433 -0.11697 0.0062588 -0.013964 0.20673 -0.31858 0.14155 -0.062471 0.17045 0.11614 0.0049994 -0.34805 -0.3118 0.012519 0.043221 0.047897 -0.060552 -0.14429 -0.16635 0.041081 0.15255 -0.098098 -0.04219 -0.28826 0.26163 -0.01733 0.041104 -0.27203 0.1216 0.17075 -0.27964 0.24334 -0.036494 -0.00046361 0.075336 -0.095646 0.01818 -0.11947 0.0025724 0.041831 -0.2449 -0.17847 0.25628 0.24252 -0.017808 0.2284 -0.31291 0.297 -0.13715 0.55595 -0.27272 0.12024 0.10736 -0.025522 -0.30254 -0.45318 -0.081787 0.01329 0.10627 -0.25182 0.098937 -0.060699 -0.40706 0.15969 0.37463 0.098404 -0.20517 0.21445 0.15376 0.17889 -0.053561 -0.236 -0.21949 0.023254 -0.12946 -0.12328 -0.1519 0.20846 -0.081192 -0.22056 0.018339 -0.196 -0.20279 0.28077 -0.33725 -0.1166 -0.11902 -0.013705 0.10557 -0.22878 0.15231 0.097982 -0.097513 -0.22959 -0.080353 0.11195 0.051286 0.15222 -0.33598 -0.15238 0.10594 0.17077 -0.11234 -0.099838 0.069885 -0.1104 0.17171 0.038131 -0.2969 -0.39751 -0.13473 0.13626 0.0029433 0.2179 0.25828 0.042214 -0.019257 0.097538 0.26732 -0.049602 -0.18438 0.19647 -0.10208 -0.26433 -0.10405 -0.12896 -0.03947 -0.16738 0.058594 0.1179 0.10735 0.19006 -0.13674 0.31719 0.25829 0.026043 0.31227 0.0081113 -0.049087 0.11441 -0.15435 -0.26764 -0.077321 0.032528 0.35251 0.17008 0.0059699 0.012979 0.00041319 -0.11638 -0.082405 0.39023 -0.16118 -0.33988 0.076007 0.16065 -0.015989 0.0057144 -0.19698 -0.33111 -0.23005 -0.19417 -0.1227 -0.049418 -0.0095731 -0.19029 0.086231 0.067901 0.025994 0.45606 0.035372 -0.06433 0.11434 0.041306 0.12894 0.16402 0.052872 0.10081 -0.21263 -0.26836 -0.047978 -0.028411 0.15171 -0.10045 0.37011 0.11229 0.074979 0.095341 0.1355 0.038275 -0.014787 -0.11045 0.047323 0.10831 -0.05662 -0.15488 0.10376 -0.16057 -0.028996 -0.30249 0.0065115 0.12333 -0.23277 0.17349 -0.11509 -0.29575 0.046128 0.095558 -0.21561 -0.15725 0.43139 -0.15246 -0.13058 -0.089303 -0.065795 0.043628 -0.15418 -0.010875 0.36644 0.24682 -0.065882 0.13017 0.097985 -0.24761 -0.13694 0.18712 -0.011985 0.10458 -0.0072278 0.32888 -0.11313 -0.12169 0.072709 -0.313 -0.10744 0.068693 0.087071 -0.011857 0.015 -0.10638 0.16131 -0.28193 0.0071755 -0.11673 -0.018943 -0.22883 0.13116 0.094117 0.21141 0.10252 0.23786 0.20641 0.16089 0.13371 -0.29856 0.076039 0.38228 0.23236 0.11924 0.20925 0.016065 0.17066 0.037619 -0.12886 0.099009 -0.070438 -0.16925 -0.11608 -0.17605 0.15085 0.049156 0.27991 0.060734 -0.0033861 -0.25207 0.077041 -0.42557 -0.040172 -0.0681 -0.31295 -0.16674 0.14583 0.03734 0.10704 -0.0045454 
disput -0.57518 0.11281 -0.30948 -0.56 0.21009 -0.48096 -0.019225 0.14285 0.41695 -0.21607 -0.28218 0.29722 0.059162 0.0089027 0.31954 -0.1751 -0.30583 -0.053194 0.59165 0.16214 0.26924 0.18697 0.44024 -0.38808 0.25135 0.20772 0.11887 -0.14263 -0.51997 -0.27094 0.20481 -0.057489 -0.15648 -0.32125 -0.007235 -0.074434 0.17673 0.077208 0.11163 0.37124 -0.18893 -0.59825 -0.17402 0.090562 -0.13393 0.16519 0.042884 -0.61123 0.16811 -0.16123 0.45783 -0.32556 0.022957 -0.15483 -0.15948 -0.31677 0.12762 -0.046658 0.1808 -0.36052 0.15728 -0.12529 0.038329 -0.45457 -0.069796 0.48123 0.42034 0.031103 0.42289 0.26806 -0.08132 0.066645 -0.22621 -0.38835 -0.33501 -0.43749 -0.026069 0.2377 -0.28733 0.71853 -0.34378 0.12873 0.38152 -0.12568 0.25693 -0.16148 -0.19489 0.034713 0.24309 0.12925 0.19887 0.26155 -0.17251 0.36924 0.032319 -0.57168 -0.59025 0.67732 0.233 0.16247 0.0081604 0.1582 0.36177 -0.048371 0.41858 0.21836 -0.0027736 0.42448 0.066647 0.21628 0.15132 0.62182 -0.74789 0.35507 -0.20533 -0.035782 0.48972 0.13201 -0.06584 0.39664 0.38085 0.089857 -0.055737 0.38679 -0.16845 -0.51248 -0.4327 -0.13298 0.14963 0.20073 -0.14121 0.12862 0.037199 0.28224 -0.042246 0.36284 -0.20929 -0.3875 0.43725 0.75728 0.62512 -0.17897 0.013984 -0.30826 -0.25785 -0.27226 -0.076315 -0.030387 -0.1379 -0.13886 -0.00047144 -0.3072 0.51542 -0.26372 -0.20274 -0.015192 -0.34301 0.069398 0.21139 0.13222 -0.0081057 -0.035176 -0.11225 0.094028 -0.052099 -0.32202 0.48187 -0.50906 -0.20085 -0.8825 0.19624 0.75181 -0.25338 -0.74935 -0.71469 -0.32854 -0.17368 0.20493 -0.56987 0.53564 0.64808 -0.17977 0.36387 0.40672 -0.50549 0.4491 0.07134 -0.149 -0.4534 0.29688 -0.28399 -0.93801 0.049822 -0.077299 -0.30083 -0.042027 -0.14966 -0.28108 -0.013053 0.053227 -0.12498 -0.1322 -0.17474 -0.036175 -0.20313 -0.074235 -0.2069 -0.11936 -0.091056 -0.018711 0.28526 0.0026873 -0.17136 -0.0011073 -0.55843 0.018408 0.28633 -0.1193 -0.06784 -0.19371 0.24376 -0.3783 -0.16175 -0.83299 0.30522 0.57378 -0.11704 0.12711 0.10666 -0.16936 -0.13669 0.077944 0.42867 0.038703 0.23402 -0.37555 0.048605 -0.54306 -0.17093 -0.69499 -0.61111 -0.37933 0.036485 0.15218 0.10877 -0.092437 0.15763 0.22498 0.25867 -0.15553 -0.34639 -0.16662 -0.028341 -0.008777 -0.41391 -0.25176 0.16202 0.008534 0.084108 -0.19507 0.31903 0.30102 0.19293 -0.13665 -0.41489 0.31786 -0.43284 -0.12048 -0.39433 -0.34884 0.11552 0.57059 0.2871 0.77549 -0.082697 -0.14533 0.17813 -0.1783 0.3371 -0.12216 -0.0046683 0.13296 0.46128 -0.32447 -0.15813 0.64295 0.31863 0.083311 -0.16547 0.54149 -0.38713 -0.020274 0.11127 0.053733 -0.6479 -0.25386 -0.45807 0.18983 0.0012588 0.043341 
liberareis -0.22508 -0.27521 0.11995 -0.10709 -0.24259 -0.025335 0.11051 -0.10836 0.10387 -0.12825 -0.052782 0.50762 0.035731 -0.091646 -0.097453 -0.18061 0.18333 -0.030999 -0.027829 0.1634 0.036543 0.048884 0.19873 0.26211 0.12399 0.063208 -0.14466 -0.20767 -0.17184 -0.32117 -0.027243 0.26611 -0.070482 0.03563 0.086143 0.26417 -0.25842 0.0088494 -0.38354 0.15918 0.33723 0.0062766 0.2128 -0.10563 0.30014 -0.19387 0.032627 0.011958 -0.044487 0.058938 0.096781 0.040099 -0.063975 0.18062 0.094001 -0.023119 -0.16246 0.28847 0.29417 0.044237 0.060637 0.095322 0.076188 0.064499 -0.043863 -0.016602 0.23961 0.17393 0.2186 -0.32902 -0.059567 -0.19797 -0.2774 -0.051527 -0.043531 -0.43516 0.12121 0.030401 0.21332 0.35785 0.030675 0.23614 0.063003 -0.23714 0.014321 0.21538 -0.029262 0.24174 0.10194 0.11801 0.2025 0.21776 0.064704 -0.30033 0.006877 0.042204 -0.39399 -0.016402 0.014623 -0.089139 -0.16949 -0.067719 -0.010558 0.17914 -0.32329 0.20813 0.47964 -0.25416 -0.081365 0.26835 -0.087041 -0.074644 0.35633 -0.15208 -0.080658 0.069941 -0.35705 -0.08663 -0.147 -0.36968 -0.26541 0.098723 0.056034 0.11464 -0.31182 -0.33089 0.10883 -0.13271 0.61067 0.046754 0.29749 -0.049423 0.030628 0.5966 0.098639 0.29582 -0.21333 -0.31173 -0.022276 0.077355 -0.17141 0.19046 0.011785 -0.023206 0.39432 0.12506 -0.013096 0.011708 0.10934 0.13664 -0.12368 0.066538 0.077019 -0.20187 -0.036541 -0.44942 -0.25761 0.31364 0.11459 0.0017185 0.35375 -0.20238 -0.13674 -0.19292 0.33488 -0.14103 -0.18977 -0.15934 -0.02517 0.22248 -0.042963 -0.34822 0.17777 0.40473 -0.11507 -0.64414 0.041134 0.072986 -0.048114 -0.07663 0.018344 0.2031 -0.14879 -0.15344 -0.025616 -0.26168 0.04554 -0.071444 -0.27551 0.058524 0.29191 -0.10634 -0.0022788 -0.078016 0.068512 0.13998 -0.0881 -0.088611 -0.022565 0.44182 -0.31183 -0.3879 0.36503 0.053287 0.14407 -0.066613 -0.20839 -0.32161 0.09742 -0.0096971 -0.15584 -0.051774 -0.32833 0.028465 -0.63406 0.21946 -0.004813 -0.28058 0.20717 -0.21899 -0.10486 -0.29393 0.24502 -0.62821 -0.68106 0.15378 0.094896 -0.47883 -0.29518 0.28728 0.31762 -0.069317 -0.01838 0.1943 0.14784 0.21186 0.49802 0.064057 -0.29642 0.068884 0.043274 0.17113 0.36962 0.55328 0.095926 -0.016159 0.43523 -0.049276 -0.30979 -0.09719 0.29826 -0.1623 -0.12503 -0.092491 0.024147 0.31762 0.066571 0.018516 -0.28189 0.10993 -0.12756 -0.020405 0.01381 -0.20951 0.23794 0.40733 -0.19368 0.047451 0.0032997 -0.25959 -0.16072 0.26707 -0.021291 0.55272 -0.20384 0.047517 0.32444 0.42304 0.34748 -0.060737 0.12022 0.033114 0.029052 -0.22125 0.16634 -0.042511 0.36531 0.033446 -0.1462 0.15556 0.23718 0.042459 0.047366 -0.20606 -0.3153 -0.10306 -0.1161 0.10551 0.024591 -0.028291 
